nep4 8 O Si Au Pt Pd Ag Rh Ir 
cutoff 7.5 7.5 127 127
n_max 8 8
basis_size 12 12
l_max 4 2 0
ANN 50 0
  4.5307130e-01
  6.3291401e-01
  6.0331907e-02
  1.4333341e+00
  2.0294759e-02
 -1.9772017e-01
 -1.7216396e-01
  2.9862040e-01
  7.8755401e-02
  5.0428551e-02
 -3.2330915e-01
  2.7962351e-01
 -1.2956633e-01
 -3.2581985e-01
 -2.8208131e-01
 -5.0031441e-01
 -4.7428137e-01
  4.1356316e-01
  3.2220849e-01
  5.2444673e-01
 -9.7472444e-02
 -3.9865762e-02
 -7.0647956e-03
  1.8156379e-01
  6.4166319e-01
  2.7220696e-01
  4.8120610e-02
 -8.5711133e-01
 -1.0798703e+00
  2.1621609e-02
 -2.9211447e-01
  8.7052345e-01
 -4.3927751e-02
  4.1046461e-01
  4.2516655e-01
 -4.2258468e-01
 -1.8291159e+00
  2.5399360e-01
  1.3667303e+00
 -2.1345323e-01
  1.0486858e+00
 -3.1707066e-01
  9.9364243e-02
 -6.4925289e-01
 -1.2682635e-01
  3.7099543e-01
  2.6311651e-01
  1.5970593e-02
  7.9324007e-01
  1.0719682e+00
  8.0934530e-01
 -2.8689666e-02
 -1.6304970e+00
  5.2320898e-01
  8.0828142e-01
 -4.3460673e-01
 -2.6343129e+00
  1.1742488e+00
  9.2102617e-01
 -3.5337260e-01
  4.5739138e-01
 -1.3716127e-02
 -6.2185687e-01
  5.6374937e-01
  3.8375533e-01
  3.5594285e-02
  3.7580147e-01
  2.8668308e-01
  2.9887748e-01
  1.0955163e+00
 -2.3564883e-01
 -8.4037882e-01
 -9.1690689e-01
 -2.9441190e-01
  2.1504676e-02
 -1.7375652e-02
 -3.9293817e-01
 -1.1010388e-01
 -5.3703018e-02
 -5.6922764e-01
  2.6759610e-02
  1.3055956e+00
 -3.8391271e-01
 -1.8343019e-01
  1.1609068e-01
  3.8542837e-02
  1.8747309e-01
 -2.5777188e-01
 -2.6727536e-01
  5.9675433e-02
  5.5606335e-01
 -7.5766653e-01
 -4.9622230e-02
 -2.2366183e-01
  2.4402058e-02
  5.2486992e-01
  8.4742397e-02
  5.5410594e-01
 -4.6926883e-01
 -2.9409245e-01
 -8.2381114e-02
 -1.6548355e-01
  2.7578596e-02
  5.3004485e-02
 -1.5179999e+00
  2.0143715e-01
 -2.8060801e-02
  3.1933591e-02
 -2.6381060e-01
  7.8981467e-02
  1.0429700e-01
 -1.2208076e-01
 -5.9578549e-02
 -1.3134091e+00
 -4.1805979e-02
 -1.4243408e+00
  3.0904573e-01
 -1.1813851e-01
  5.1480728e-01
  3.4521157e-01
  3.2947192e-01
  1.4721293e+00
 -2.1891493e-01
 -5.8967233e-02
  4.1820371e-01
 -7.2573334e-01
 -4.5190971e-02
 -2.7933466e-01
 -4.2333508e-01
 -2.5389993e-01
  1.6320392e-01
 -1.4275539e+00
 -5.4571611e-01
 -1.0315064e-01
 -4.4889614e-01
 -1.1928526e-01
 -1.0524427e+00
  2.6285598e-01
  6.4976528e-02
 -1.0972756e-01
 -8.8491887e-01
  2.1280958e-01
 -4.4122049e-01
 -9.8341770e-02
 -2.2481917e-01
 -7.6625936e-02
 -2.1374159e-01
 -4.5424357e-01
 -3.0956084e-01
 -4.8627129e-01
 -4.4614422e-01
  6.3620389e-01
  2.2391003e-01
 -1.6171406e-01
 -1.1905691e-01
 -7.5549972e-01
  4.4251943e-01
  3.1178999e-01
 -5.2171122e-02
  1.2434440e+00
 -6.0943574e-01
  3.5620746e-01
 -3.1790036e-01
 -4.9260321e-01
 -2.8146768e-01
 -4.4010527e-02
 -5.2156466e-01
 -9.0591095e-02
 -4.2099473e-01
  8.1819069e-01
 -2.0795764e-01
  5.5148512e-01
 -3.0893677e-01
  1.4787309e-01
 -7.2266483e-01
 -2.3714694e-01
  5.9138203e-01
 -9.5841181e-01
  5.1906633e-01
 -1.1284399e+00
  3.4604549e-01
 -4.6404439e-01
  8.5798725e-02
 -8.8774174e-02
  3.3652049e-01
 -1.9321101e-03
 -4.8032188e-01
  1.3317627e+00
  3.1621677e-03
  5.8385515e-01
  1.1535587e+00
 -6.1767036e-01
 -9.5704123e-02
  5.6641728e-01
 -1.3715769e-01
 -3.8773194e-01
 -1.0549589e+00
 -2.1503972e-01
  3.5938028e-01
  4.8346999e-01
  1.0641975e+00
 -5.2080655e-01
 -1.3010921e-01
 -1.7376837e+00
 -2.8061030e+00
 -6.1920315e-01
 -9.2843747e-01
 -2.5281307e-01
  7.3629141e-01
 -1.3528113e-01
  5.1629309e-02
 -6.7412382e-01
  1.9978328e-01
  1.1326195e-01
 -7.5724423e-02
 -1.0234699e+00
  2.0493796e-01
 -9.2115887e-03
  2.1412836e-01
 -3.6854658e-01
 -5.6299247e-04
 -9.1161370e-02
 -2.0459367e-01
 -3.2840377e-01
  2.4068439e-03
 -2.1613203e-02
  2.1904273e-01
 -1.2198627e+00
  1.1549207e-01
  5.3701460e-01
 -2.1945895e-01
  8.9779720e-02
  1.0856768e-01
 -9.2600351e-03
 -4.6999034e-01
 -2.7952275e-01
  4.3393093e-01
  5.6784791e-01
 -1.6922090e+00
  1.2176022e-01
 -1.7793950e-01
 -1.0181446e+00
  1.8885787e-01
 -5.7310022e-02
 -3.7896536e-02
 -6.5562987e-01
 -6.7245252e-02
 -7.3900586e-01
  1.0793043e+00
  1.3716152e-01
 -1.0043783e-01
  4.3142995e-01
 -5.2488923e-01
 -1.3131823e-01
 -1.4578906e-01
  2.6855695e-01
  6.6980213e-01
  1.8748721e-02
 -1.5017979e+00
  3.0500624e-01
 -1.2129206e-01
  1.0898174e+00
  5.2365638e-02
 -9.1678256e-01
  1.8137479e+00
  1.7891014e-02
 -4.5922616e-01
  2.9454589e-01
 -4.3644547e-01
  5.2683353e-01
 -5.8737256e-02
 -1.3508332e-01
  2.7017178e-02
  1.1456090e+00
 -2.4593624e-01
  1.4083437e-02
 -3.0437079e-01
 -9.6715951e-01
  1.3389548e+00
  1.2567246e-01
  3.2639894e-01
  1.4010315e-01
  3.5739607e-01
  3.5204077e-01
 -6.9014198e-01
  9.3425423e-02
  1.1103977e-02
 -3.2389978e-01
  9.9697888e-02
 -1.5734166e-01
  1.6993906e-02
  3.7076750e-01
  1.7184820e+00
  1.0784001e+00
  1.7666239e+00
 -1.6138290e-01
 -3.5345000e-01
 -3.8367519e-01
  1.9586614e-01
  5.7402730e-01
  1.0137943e-01
  9.1398931e-01
 -7.7541864e-01
  3.0372936e-01
 -2.5724337e-01
 -9.1543871e-01
 -1.3205512e+00
 -1.5991242e-01
 -2.0796695e-01
 -1.0288065e-01
 -7.2408088e-02
  1.2273011e-01
 -8.0148047e-01
 -2.2568938e-01
 -1.0377382e+00
  6.4696163e-01
 -2.7735414e-02
 -3.0679576e-02
 -4.3882079e-02
 -3.2686380e-01
  1.7869571e-01
  1.0125998e-01
 -1.1300097e-01
  7.0142514e-01
  6.1808050e-01
  6.8189317e-01
  1.2545146e+00
 -1.6222879e+00
 -2.4817364e-01
 -4.6983486e-01
 -9.7988003e-01
  8.3346128e-01
 -6.1270837e-02
  1.0213641e+00
  9.2405193e-03
 -4.8858255e-02
  3.8500962e-01
  1.7600776e-01
 -2.2533844e-01
  1.8804886e+00
 -1.3511347e+00
 -3.7028393e-01
 -6.9789386e-01
 -8.5554767e-01
  1.4063640e+00
  9.1099107e-01
  2.3668887e-01
 -7.6214021e-01
 -2.1699880e-01
 -5.5124164e-01
 -1.2892585e+00
 -8.4562528e-01
  2.1594360e+00
 -2.3172429e-01
  4.3919843e-01
  2.1680291e-01
 -2.8446195e-01
 -4.7701469e-01
  5.1467761e-02
  2.5762931e-01
 -4.0102210e-03
  1.1619333e-03
 -8.6097729e-01
 -4.9336582e-01
 -3.0814219e-01
  2.9645425e-01
  1.3640608e+00
 -9.3256432e-01
 -1.8977375e-01
  1.6947497e-01
  4.8345140e-01
  3.2860529e-02
  7.2103366e-02
  3.6277217e-01
  2.5076056e-01
 -3.5020635e-01
 -5.0581121e-01
 -2.8535184e-01
  7.7622153e-02
  2.4709889e-01
 -1.2191069e+00
  3.8559601e-01
 -5.5859661e-01
  1.3352594e-01
 -9.7526170e-02
  3.1229392e-01
  5.7041579e-01
 -2.4912290e-01
  8.6037767e-01
 -2.0086494e-01
 -3.8564831e-01
 -2.9441458e-01
  6.6390568e-01
  9.8168272e-01
 -1.3954715e-01
 -1.4794703e-01
  5.4967594e-01
  1.0251370e-01
 -5.8954760e-02
  1.0618272e-01
 -2.0759189e+00
 -1.5041678e-01
 -4.3714374e-01
  1.1312838e-01
 -3.2564270e-01
 -1.5759806e-01
 -1.8659286e-01
  9.9368751e-02
  8.2513940e-01
  3.1270322e-01
 -4.5866302e-01
  3.4347224e-01
  3.5457855e-01
 -1.7804345e-01
 -4.2565623e-01
  4.6225643e-01
  1.4225188e+00
  1.1621193e-01
  3.4549749e-01
 -4.9933001e-02
 -1.6830787e-01
  9.7545117e-01
  2.0480612e-01
  4.3560982e-02
 -3.6130691e-01
 -4.8783563e-02
  9.5487326e-01
  3.1146601e-01
  4.0990314e-01
 -8.7631904e-02
 -4.1252166e-01
 -4.8927464e-02
  9.1767275e-01
  1.0395036e+00
 -1.1914549e+00
  4.0566561e-01
 -3.6851278e-01
  1.6582961e+00
 -9.5013060e-02
 -3.4149548e-01
  2.1916330e-01
  4.5013481e-01
  3.1490407e-03
 -3.7636471e-01
 -3.2827407e-01
  3.3448845e-02
 -3.1516585e-01
  6.1640424e-01
  5.3310275e-01
  1.4229248e+00
  9.1145903e-01
 -1.0857048e-01
  1.3206678e-02
  1.2193497e+00
  1.3496418e-01
  2.5604308e-01
 -5.1941031e-01
  5.3401500e-01
 -1.5461993e-01
  5.0810391e-01
  4.6577916e-01
  1.7689747e-01
  3.8005513e-01
  5.9306413e-01
 -2.0315558e-02
 -1.0054262e-01
  1.1909817e-01
  6.1367452e-01
 -8.7413862e-02
 -1.1689448e-01
 -3.8964126e-02
  7.8809112e-02
  1.4285888e-01
 -8.8309921e-02
  5.6593060e-01
 -1.1326876e+00
  1.3524669e-01
 -1.2114923e-01
 -1.7385305e-01
  3.8206509e-01
 -2.5481108e-01
 -7.2617662e-01
  4.8566652e-03
 -3.5403289e-02
 -3.6927173e-01
  9.9838547e-02
 -1.3451948e+00
 -5.7107443e-01
  4.6597093e-02
  1.2997203e-01
  6.9723403e-01
  2.7515072e-01
 -2.8666189e-01
  5.4790211e-01
  1.0206500e-01
  1.2294713e-01
 -5.5308044e-02
  1.6317283e-01
  3.6149722e-01
 -1.6751082e-01
  1.0065088e-02
 -3.8887742e-01
  1.2268895e-01
 -2.8779250e-01
  4.6491140e-01
  1.5025009e-01
 -3.7369668e-01
 -3.2381299e-01
 -1.8927546e-01
  6.2537080e-01
 -7.7929169e-01
  5.8883801e-02
  5.4308504e-01
  1.2168404e+00
 -2.3529750e-01
  4.9501532e-01
 -2.2724926e-01
  2.6203400e-01
  4.7970757e-02
  7.3369098e-01
 -2.2876130e-01
 -3.7773913e-01
  2.6858836e-01
  1.2984450e+00
  1.1815554e-01
  1.2380081e-01
  6.0514814e-01
  9.6763396e-01
  5.7562411e-01
 -2.9749492e-01
 -2.2410049e-01
 -3.9673877e-01
 -2.4114789e-01
 -5.1434326e-01
  3.6371139e-01
  1.8608922e-02
 -8.7376125e-02
  2.5620505e-01
 -1.2288054e-01
  2.5846443e-01
 -4.9188846e-01
  2.7348530e-01
  1.1630528e-01
 -2.4731642e-01
 -1.0881006e+00
  5.2518304e-04
 -4.4103098e-01
 -1.5595667e-01
  2.0265210e-01
 -2.2654158e-01
 -1.4155133e-01
 -1.9201456e-02
  4.5046635e-02
 -1.9498317e-01
  2.3327008e-01
  4.7702618e-02
 -1.2831682e-01
  1.2727115e-01
  1.0612749e-01
  3.2659031e-02
 -2.3218195e-01
 -8.9697444e-01
  1.1529598e-01
  3.7932526e-02
 -4.4181563e-02
 -5.0933456e-01
 -1.2218007e-01
 -1.6350389e-01
  2.7792683e-01
 -4.3412115e-02
  3.1773083e-02
  3.5944304e-01
  4.7881281e-01
  3.2828411e-01
  6.5772873e-01
  4.5818648e-01
 -9.8863035e-01
 -8.0466844e-02
 -2.6304029e-02
  3.2643238e-01
  4.9730819e-01
 -2.2288603e-01
  1.4029894e+00
  1.5303661e-01
  3.2190523e-01
  5.1695630e-02
  6.1538851e-01
  1.5369345e+00
  1.1230586e-01
  9.8947182e-02
 -1.5479816e-01
 -1.2006940e-01
 -4.5192710e-01
 -4.2229423e-01
  7.0192224e-01
 -1.8303759e-02
  3.6704224e-01
  9.7988290e-01
  5.9628731e-01
  1.4361074e+00
  1.5434614e+00
  1.2036738e+00
 -2.8121588e-01
  5.4171756e-02
  6.8908530e-01
  5.3860605e-01
  7.2385699e-01
 -1.2315387e+00
  4.4772950e-01
 -7.3973274e-01
  1.7624366e+00
  2.4835009e-02
  8.8561875e-01
  8.5790980e-01
  4.6129477e-01
 -3.1847543e-01
 -1.3193797e-01
  4.2871663e-01
 -7.5259966e-01
  4.0232525e+00
 -1.1520646e+00
  5.1947087e-01
  1.4232618e-01
  1.1697395e+00
  1.3713764e+00
 -8.6055912e-02
 -3.3214808e-01
  5.2927989e-01
 -2.0408707e+00
 -1.1679807e+00
 -1.6520678e-01
 -1.1282104e+00
  1.4946475e+00
  8.0345511e-02
 -4.9061406e-01
 -5.0264788e-01
 -4.0663221e-01
  3.5443127e-01
 -6.1484182e-01
 -4.0039572e-01
 -1.5916638e-01
  1.9107504e-01
  4.7371694e-01
 -1.2332324e+00
 -3.6560741e-01
 -2.0921153e-01
  5.3842670e-01
  2.0016779e-01
 -7.1276444e-01
  1.9932809e-01
 -1.2149107e+00
 -4.6597198e-01
  1.9327977e-01
 -6.9129489e-02
  2.4648401e-01
  1.7928013e-01
  1.0659485e+00
  1.2703795e+00
 -3.5886056e+00
 -5.6707728e-01
 -7.0183164e-01
 -1.6741602e-01
  7.2874641e-01
 -7.6068920e-01
 -6.6546357e-01
  2.0875428e+00
 -7.7193815e-01
 -1.4246022e+00
 -1.9682652e+00
 -7.9487538e-01
 -2.3848915e-01
 -3.9833599e-01
 -3.6703944e-01
  1.5570588e-01
  1.0562814e+00
  5.6264549e-01
 -2.4141436e+00
  9.6017164e-01
 -5.2422279e-01
 -4.2569003e-01
  1.3187292e-01
 -2.7513325e-01
 -1.8143462e-01
 -8.3777285e-01
 -2.2649826e-01
 -2.1660097e-01
 -9.9651808e-01
 -2.0653771e-01
  2.2510304e-01
  4.3930295e-01
  1.6961975e+00
  9.5424598e-01
 -8.1627208e-01
 -2.0939562e-02
 -4.6318796e-01
 -1.0987906e+00
 -8.7352687e-01
  3.6008993e-01
  3.9332345e-01
 -1.8751083e-01
  1.3966825e+00
  1.1119020e-01
  2.4751277e+00
  1.4094877e+00
  7.4977368e-01
  1.5763338e-01
 -1.3061498e-01
  2.1517229e-01
  1.8415630e+00
  3.8184533e-01
  1.5662760e+00
 -3.9587620e-01
 -3.3139309e-01
  5.4483199e-01
  1.1375546e+00
 -9.3100972e-02
 -7.1045333e-01
  1.7956191e+00
  7.4716568e-01
 -5.8468848e-01
 -1.2225726e+00
 -3.1738024e-02
 -3.2145679e-01
  1.4257631e-01
  2.0906076e-01
 -4.4422281e-01
  3.5839412e-01
  9.6247442e-02
 -2.5661269e-01
 -1.2880883e-01
  1.5186672e-01
  6.3488013e-01
  2.0649943e-01
 -1.3759773e-02
 -6.1279809e-01
  2.1597118e+00
  5.7549739e-01
  1.0571800e+00
  1.7008438e+00
 -5.7521039e-03
 -2.5006476e-01
 -4.1558540e-01
  9.1470361e-01
  9.8439313e-02
  1.1578931e+00
  4.2217904e-01
 -6.3256544e-01
  5.1358420e-01
  7.2225785e-01
  5.7415336e-01
 -2.0511377e-01
 -7.3875561e-02
  7.2830582e-01
 -6.7612112e-02
  9.6924335e-02
  1.4017606e-01
 -6.3171959e-01
 -7.5914454e-01
  2.3855433e-01
 -1.2797268e-01
  6.5688634e-01
 -3.8252673e-01
 -4.3842244e-01
  8.2146578e-02
 -1.3013947e-01
  1.5475275e-01
  1.9204071e-01
  1.2864950e-01
  1.0189666e+00
 -1.5249763e+00
  1.3615780e-01
 -2.5913855e-02
  5.4432327e-01
 -3.8300678e-02
 -7.2423823e-02
 -1.5135584e-02
  8.0604227e-03
 -3.1214472e-02
 -4.6237421e-01
 -1.5819298e-01
 -5.6205142e-01
 -7.3950663e-02
  2.7748341e-02
  2.4648252e-01
 -4.2266539e-01
 -1.5602478e-01
  6.1083436e-01
  1.1501894e-01
  1.4196537e-02
 -5.3769201e-01
 -9.1915399e-01
  4.6563503e-01
 -4.8673165e-01
 -1.5551217e-01
 -4.2248732e-01
 -1.5199775e+00
 -3.5437173e-01
  4.3041983e-01
  2.4026109e-01
 -2.4338496e-01
 -1.6787507e-01
 -1.6353277e-02
 -6.7701739e-01
 -5.0856793e-01
 -9.3148067e-04
 -3.9775276e-01
 -3.8430208e-01
 -9.6780710e-02
 -3.0274700e-02
 -9.0754010e-02
 -1.8467283e+00
 -6.0334420e-01
 -5.2013230e-01
  2.6549825e-01
 -2.5834554e-01
  1.2599218e+00
 -2.4261993e-01
 -7.5830269e-01
 -6.7632265e-02
 -1.3524042e+00
  3.7419868e-01
  1.0815648e-01
 -8.2071251e-01
 -7.6205933e-01
  3.4485057e-01
  6.8989888e-02
 -7.2574027e-02
  5.9733367e-01
  2.2657425e+00
 -2.5836185e-01
  9.8008834e-02
 -5.2949339e-01
 -1.1542618e+00
 -5.6478936e-02
  1.6617803e-02
  9.8584640e-01
  9.2333250e-02
  2.0103192e-01
  2.3252290e-01
  5.9304804e-01
 -1.4240797e-01
 -6.2696898e-01
 -6.0825213e-03
  5.1101714e-01
 -9.6064758e-01
 -3.9077976e-01
 -7.7331178e-02
 -1.4050739e-01
 -4.0950319e-01
  2.5310907e-01
  2.6993614e-01
 -6.7191705e-02
 -4.5863733e-01
 -9.3450628e-02
  1.7942016e-01
  8.2792312e-01
 -4.2928569e-02
 -9.8587036e-01
 -5.0063378e-01
 -1.0950795e+00
  8.8152033e-01
  1.1248164e-01
 -1.3236466e-01
 -6.5963678e-02
  8.1201547e-01
  1.5713902e+00
  1.0453300e+00
  1.4429203e+00
  5.7213461e-01
 -2.4181122e-01
  1.6001140e-01
 -5.9817996e-02
 -5.4874557e-01
 -3.3859721e-01
 -5.3964257e-03
 -1.3722400e-01
 -7.8632899e-02
  4.6636406e-01
  2.4373166e-01
 -7.0164573e-01
 -4.3233621e-01
  1.1469545e+00
  3.0005810e-01
  4.8650783e-01
 -3.9207257e-02
  3.0413949e-01
  9.9884897e-02
 -1.3353169e-01
 -4.8720074e-01
 -8.0046391e-01
 -3.1475775e-02
  4.3601418e-01
  4.8781164e-02
 -1.7017847e-01
  4.5967497e-02
 -7.0787257e-01
  1.0766299e+00
 -8.5670394e-01
  5.8223337e-01
  9.3053997e-01
 -1.8226801e-01
 -1.2739190e+00
 -6.8604037e-02
  1.6254480e-01
  9.0231255e-02
 -1.6359538e-01
  1.6670890e+00
  1.2989562e+00
 -2.5190142e-01
  5.9996091e-02
  7.9084329e-02
  1.0443348e+00
  7.6334190e-01
  3.6108437e-01
 -3.0022016e-02
 -7.4718040e-01
  7.7187330e-01
 -3.8847482e-01
  2.2737454e-01
  2.3848699e-01
  2.1037249e-01
 -9.5634192e-02
 -5.3201431e-01
 -1.0170020e-01
 -4.3593910e-01
  4.9981526e-01
  4.2324519e-01
  1.8834101e-01
 -5.0319068e-02
  2.1827232e-02
 -9.9209487e-02
 -2.9233193e-01
  4.4432351e-01
  1.5333578e-01
 -6.7547721e-01
 -3.4438646e-01
  8.8888288e-02
  4.2280130e-02
  1.2747246e-01
 -1.3680707e-01
  2.3261005e-01
 -2.1005955e-01
  9.0717584e-01
 -3.4883770e-01
  8.4491454e-02
 -3.3130817e-02
 -1.8935306e-01
  4.1193116e-02
 -5.9274472e-02
 -1.3581594e+00
 -1.5073188e-01
  5.7130471e-02
 -6.5828860e-01
 -1.2210175e-01
  3.3466032e-01
 -6.6352012e-03
 -1.5136550e-02
 -6.5661126e-01
 -1.7914169e-01
 -2.7574083e-01
 -1.6953473e-01
  2.3148827e-01
  8.7512255e-02
  4.0746171e-02
  2.0427629e-01
  3.1736848e-01
 -6.3589454e-01
  1.2721230e-01
  2.6976973e-01
  2.4532780e-01
 -2.0608303e-01
  3.3511755e-01
  2.0933957e-01
 -7.8559704e-02
 -5.8845836e-01
 -7.7044410e-01
 -3.1625128e-01
  6.3328993e-01
  2.5735810e-01
  2.6471000e+00
 -2.2176133e-01
 -7.0488550e-02
 -3.7295890e-01
  2.7104545e-01
  1.0432212e+00
 -4.0340677e-02
 -2.7512303e-01
  2.4143314e-01
  2.6914473e+00
  8.1341274e-02
  1.6460294e-01
 -3.2033405e-01
 -6.8229847e-02
 -1.0341421e+00
  6.8779182e-01
  1.7306119e-01
 -5.0721937e-01
  2.9686502e-01
 -4.5440406e-02
 -1.4231928e-01
  2.9902790e-02
 -6.0914207e-01
 -6.2495619e-01
  1.8778799e-01
  8.7035984e-02
 -5.5230016e-01
 -8.1522280e-01
  1.0789959e+00
 -1.7699351e+00
 -1.7927314e-01
  1.6445331e-01
  1.2230373e-01
 -1.2145191e-01
 -5.2568376e-01
 -9.0305038e-02
 -6.3968748e-02
  9.6059635e-02
 -3.7529221e-01
  7.2752267e-01
 -4.3134993e-01
 -1.0781280e-01
 -6.7773491e-01
  2.3781702e-02
 -3.6260366e-01
 -8.1072733e-02
  2.6670830e-02
 -5.3624845e-01
 -1.7259749e+00
  1.1926997e+00
 -1.1247760e-01
 -1.0853431e-01
  1.0815670e+00
 -3.2533506e-01
  4.1371393e-01
  7.7010429e-01
  1.4944693e-01
  5.1546484e-01
 -4.5674318e-01
  1.2111282e+00
 -3.7633890e-01
  1.7223704e-01
 -3.0347657e-01
 -9.4202602e-01
  1.8160258e-01
 -5.7957333e-01
  2.7732681e-02
  5.6554461e-01
  1.3975406e-01
 -3.9153823e-01
  1.2834144e+00
 -1.1239196e-01
 -3.1895432e-01
 -7.3309636e-01
  2.7397272e-01
 -2.8468165e+00
  3.8611564e-01
 -3.0512822e-01
 -1.5085723e+00
  2.3235600e-01
  2.9587188e-01
 -7.7240783e-01
  1.5012412e-01
 -7.2863184e-02
 -9.9089533e-01
  8.8718571e-03
 -5.5823807e-02
  2.3506133e-01
  1.5329729e-01
  2.1387006e-01
 -5.3244936e-01
 -4.8579684e-01
  6.5038763e-02
  1.1194495e-01
  1.1499724e-01
 -2.7742090e-02
  1.0435630e-01
  3.0737516e-02
  2.3246852e-01
  4.2417920e-01
  1.4325223e+00
 -1.4429556e-02
  2.6312792e-01
 -1.9015818e+00
 -9.3243182e-02
 -7.0492196e-01
 -1.3968941e+00
  1.0162804e+00
 -1.6748430e+00
 -2.0110020e-02
 -7.3509997e-01
  6.0979959e-02
  1.8224624e-01
 -8.1721514e-01
  7.2239989e-01
 -1.0687783e+00
  1.8008146e+00
 -7.0739740e-01
 -6.6958386e-01
 -9.5861405e-01
  1.2034817e+00
 -6.1560738e-01
  1.2429979e+00
 -4.4067833e-01
  1.0043485e+00
  1.9534351e+00
 -1.1427537e+00
  1.6006263e-02
  7.3545122e-01
  2.3712973e-01
  1.7885387e-01
  5.4245520e-01
  5.7693690e-01
 -1.3886769e-01
  8.6490238e-01
  4.4790074e-01
 -2.3151077e-01
  1.0102203e+00
  1.0644661e+00
  1.2645384e+00
  1.0973350e+00
  5.5808944e-01
 -7.4704319e-01
 -3.4419152e-01
  1.8439988e+00
 -5.5671155e-01
  8.7384492e-01
 -1.3487202e-01
  7.1455884e-01
 -4.8152193e-01
 -1.1597910e-01
  6.6195172e-01
 -5.5512398e-01
 -2.5181669e-01
  4.4762626e-01
  6.8859085e-02
 -3.3388242e-01
  1.2031773e+00
 -3.8375697e-01
 -8.8553834e-01
 -5.5450314e-01
 -3.2172072e-01
 -1.9925337e-01
 -1.3516309e+00
 -3.9911620e-02
  1.9619624e-01
  5.9068263e-02
 -1.9622339e-01
 -3.7174839e-01
 -6.6679023e-02
  1.3369451e+00
 -1.6812929e+00
 -5.5904251e-01
 -6.8376011e-01
 -1.0074064e+00
  2.1959070e-02
  2.1482959e-01
  1.5002291e+00
 -2.5974132e-02
 -2.7856606e-01
 -1.2482595e-01
 -2.8189912e-02
  1.0902593e+00
 -4.5470074e-01
 -1.4461210e-01
  2.0773932e-01
  2.1843189e-01
 -2.3274416e-01
 -4.2027479e-01
 -7.2103387e-01
 -5.2075344e-01
 -2.0313478e-01
 -3.8275662e-01
  7.5516641e-01
 -5.5309497e-02
  2.5933644e-01
 -2.2987644e-01
  1.3008615e-01
 -1.6035777e-01
 -4.1821963e-01
  3.9485449e-01
 -9.1592056e-01
  4.2197457e-01
  6.9601029e-02
  2.5717032e-01
 -2.6054618e-01
 -1.1452071e-01
  3.3634669e-01
  1.0041070e-01
 -1.4775746e+00
 -4.2677864e-01
 -9.4977915e-01
 -9.7428930e-01
 -7.1099699e-01
 -9.6626326e-02
 -1.8276412e+00
  3.9915070e-01
  1.3398277e+00
  2.2350144e-01
  3.1030756e-01
  3.5215680e-02
  2.1112752e+00
 -7.4534059e-01
  1.6143897e-01
  4.2777663e-01
  2.1751495e-01
 -6.2982816e-01
 -3.6421382e-01
  7.6928288e-02
 -1.0583358e-01
 -1.1907203e-01
 -4.4648820e-01
 -1.0710879e-01
  6.1242068e-01
  9.7364926e-01
 -1.5802261e-01
 -2.8109648e+00
  2.6061010e-01
  1.1479094e-03
  3.4118482e-01
  1.0253781e-01
 -6.3135481e-01
  1.3294556e+00
 -1.4905914e-02
  1.8343548e+00
 -1.9414918e-01
 -4.3197915e-02
 -1.9514702e-02
 -9.5705670e-01
  1.6731067e-01
  8.6488718e-01
  5.1013321e-01
 -1.8948551e-01
 -1.9376929e-01
  4.0023152e-02
  3.4788251e-01
  6.3132298e-01
 -1.2620492e+00
  6.4304072e-01
 -4.2994645e-01
 -1.1144953e-01
 -4.1741216e-01
  4.8445392e-01
  1.7333490e+00
  1.2290925e+00
  3.8480809e-01
  4.2841318e-01
  9.2524964e-01
  1.4558216e+00
  8.7482762e-01
  9.4109130e-01
 -5.9807771e-01
 -3.9490563e-01
  4.6691325e-01
 -4.0030986e-01
 -5.3502846e-01
 -2.6743536e+00
 -6.3024962e-01
 -2.5133255e-01
 -8.5082836e-02
  8.4291482e-01
 -3.9936039e-01
 -7.9664224e-01
  2.5298798e-01
  9.0968525e-01
 -9.5673800e-01
  4.8100296e-01
 -3.2446402e-01
 -3.9640108e-01
 -1.4210171e-01
  8.8693374e-01
  1.3666643e+00
 -3.9360404e-01
 -9.4844446e-02
 -4.3793416e-01
 -1.9063775e-01
 -9.1030216e-01
  3.7913880e-01
  1.0953223e+00
  6.8573046e-01
  1.0109340e+00
  2.0053223e-01
  4.5130414e-01
  2.4359554e-01
  4.7177911e-02
 -3.8736734e-01
 -3.1939691e-01
  6.4980191e-01
 -3.7675795e-01
 -9.5689648e-01
 -7.1868563e-01
 -8.6108196e-01
 -2.1246833e-01
 -3.0484417e-01
  2.0190511e-02
  5.7079118e-01
 -1.2975304e+00
 -2.0377300e+00
  5.3564864e-01
 -4.0557462e-01
 -2.6608625e-01
 -1.1792895e+00
 -1.5194952e+00
  1.0464466e-01
 -2.2391384e+00
 -2.8842479e-01
 -1.6259935e+00
  8.9728105e-01
  3.2986109e-03
  6.2244862e-01
 -1.4751898e-01
  9.1202533e-01
  3.3916682e-01
 -6.5010351e-01
 -5.1470202e-01
 -8.9705217e-01
  7.3765677e-01
 -1.8147994e-03
 -6.2188476e-01
 -5.9857957e-02
  6.9798172e-02
 -1.3476356e+00
  4.6999630e-01
 -2.3572676e+00
 -9.1828263e-01
  5.2029479e-01
 -6.7119196e-02
  3.7829599e-01
 -2.1066287e-01
  1.0978204e-01
  2.2645807e-01
 -2.0750564e-01
 -4.9182552e-01
 -6.0097772e-01
  6.4358845e-02
  4.3591499e-01
  5.9200671e-02
  8.0025427e-02
 -1.3957459e-02
 -2.3281617e+00
 -6.4538729e-01
  1.7016682e-01
  9.6218926e-01
 -7.4536890e-02
 -2.5111667e-03
 -1.6601343e-01
  1.2168948e-01
  2.4624036e-01
 -1.0845707e-01
  2.3711616e-01
  1.2937400e-01
 -1.6082002e-01
  3.4236920e-01
 -2.6838559e-01
 -6.8358231e-01
 -2.5044878e-03
 -6.3546425e-01
  8.7166524e-01
  8.3483571e-01
  8.8621253e-01
  9.5772207e-01
 -5.2368355e-01
 -5.7087278e-01
 -1.8020798e+00
  4.8968312e-01
  2.1900441e-01
  2.9162776e-01
  1.1361170e+00
  5.2764398e-01
  2.2863473e-01
 -2.6848584e-01
  4.6279436e-01
 -1.8289855e-01
 -2.6162300e+00
 -2.0208354e+00
  1.3321048e-01
 -6.5460227e-02
  2.7739233e-01
 -2.5731048e-01
 -8.1749223e-03
 -4.0696925e-01
 -2.2775853e+00
  4.4241422e-01
  1.1481799e+00
  1.6227970e+00
  9.1786975e-01
  1.3390635e-01
  6.2655789e-01
 -9.0877175e-01
 -1.2461732e-01
  4.2141232e-01
  2.1304902e-01
 -1.0420873e-02
  4.5975810e-03
  1.2514926e+00
 -9.4805712e-01
 -3.7975702e-01
 -6.4007604e-01
  2.9265827e-01
  5.2524488e-02
 -1.9841896e-01
 -2.3406367e-01
  3.4377438e-01
 -1.3210340e-01
 -7.2123903e-01
 -1.4352318e+00
 -4.8042619e-01
 -5.0759315e-01
  1.4434104e-01
 -9.8885976e-02
  1.2540268e-02
 -1.5006300e+00
  3.1014386e-01
  4.3291786e-01
 -2.9340217e-02
  1.7817661e-01
  9.3698129e-03
  4.3103103e-02
  9.9365282e-01
 -3.2630634e-01
 -6.5134726e-02
 -6.5942115e-01
 -6.6044903e-01
  1.2061510e+00
  1.3010193e-01
 -4.6130568e-01
  3.5552776e-01
  2.5601491e-01
  1.3449318e+00
  3.6578956e-01
  1.5926942e-01
  2.5550267e-01
 -2.5042109e+00
 -3.2561004e-01
  1.9092147e-01
  1.3011723e+00
 -1.4625449e-01
  2.5480661e-01
  4.8533601e-01
 -1.8585530e-01
  2.0647645e-01
 -5.5032700e-01
 -1.1869077e-01
 -7.7674198e-01
  5.6461877e-01
 -2.0615976e-01
  6.3361377e-01
  6.8030709e-01
 -1.0067575e-01
 -7.3622543e-01
  1.7766705e-01
 -2.1762680e-01
  4.3514514e-01
  9.9761747e-02
 -2.0493844e-01
  4.5868058e-02
 -1.5088171e+00
  6.3423567e-02
 -9.3413547e-02
 -1.1164623e-01
 -6.1956972e-01
  2.8398934e-01
  1.4723621e-01
 -1.2557011e+00
 -9.1243941e-01
  1.2575620e+00
 -9.9760598e-01
  3.9385024e-01
  2.3501921e-01
 -3.2914284e-01
 -1.3407753e-01
  5.5446404e-01
 -5.6256121e-01
 -3.3428207e-01
 -1.0983039e-01
  5.6968816e-02
 -4.8567072e-01
 -1.7265789e-02
  1.9166368e-01
 -4.9843451e-01
  7.7903128e-01
  1.4116368e-01
  3.9529511e-01
  6.6713288e-02
 -5.6879163e-01
 -3.7249300e-01
 -9.7143324e-03
  2.0107999e-02
  1.2675294e+00
 -2.8871381e-01
 -2.2326382e-01
 -3.7940800e-01
  6.0231423e-01
  6.6825610e-01
  7.6305047e-02
 -3.5481855e-02
 -3.2852960e-01
  2.4811427e-01
 -1.5035987e-01
  2.9007131e-01
  1.7274080e-01
  1.3131552e+00
  3.8618904e-01
  8.8576955e-01
 -5.0788903e-01
  1.9944627e-02
  5.6416627e-02
  1.4070532e-01
  2.0924260e-01
  2.8360519e-01
  5.0293183e-01
 -9.0191394e-01
  1.6460949e-01
  6.7905867e-01
  7.5093663e-01
 -8.0793357e-01
 -8.6008525e-01
 -1.8326779e-01
  5.9326363e-01
 -5.7781172e-01
 -1.6302929e+00
 -5.0494349e-01
  3.8850269e-01
  1.4267194e-01
 -3.4629773e-02
  5.6300384e-01
  2.9712206e-01
 -5.6971246e-01
  1.2831194e+00
  1.2500101e+00
 -1.2275054e+00
  4.3382127e-02
 -1.5748812e-01
  5.8330798e-01
 -1.4982542e-03
  2.8840989e-01
  8.8559806e-01
  1.3782455e-01
 -2.1614251e+00
 -3.2788381e-01
 -8.0895036e-01
  8.6904518e-02
  7.7133697e-01
 -1.0370345e-01
 -1.2548316e+00
 -1.4312349e-01
  4.0269876e-01
  1.3377720e-01
  4.4229963e-01
  8.8304132e-01
 -8.9877456e-01
  1.5262710e+00
  2.9244652e-01
 -2.1823004e-01
  5.7938385e-01
  2.8724578e-01
  1.0658219e+00
  1.5610595e-01
  1.3166597e-01
  1.6955837e+00
 -1.3019943e-01
 -2.0161331e-02
 -3.5397820e-02
  3.4330058e-01
  8.2433060e-02
 -2.1900600e-01
  9.4756618e-02
 -1.2582918e-01
 -1.4460149e-01
 -7.4007547e-01
  3.5567132e-01
 -1.9731313e-02
  9.7192913e-01
 -6.1712247e-01
  1.4537947e-01
 -3.4467113e-01
  3.6309156e-01
  9.7974384e-01
  1.1472224e-01
 -3.7669575e-01
  5.0761324e-01
  6.6775751e-01
 -1.8470908e+00
 -2.2982012e-01
 -7.0301384e-01
  9.6215449e-02
  6.4534239e-02
 -1.0370980e-01
 -1.2442040e-01
 -7.3948008e-01
 -8.3190873e-02
  1.6212907e-01
  2.4074586e-01
 -2.3992240e-01
  1.7759979e+00
  2.7998636e-02
  3.8161951e-01
 -2.2363323e-01
 -4.2568916e-01
  4.7081267e-03
  4.5318604e-01
 -1.7704794e-01
 -9.5667917e-01
  2.5957203e-02
  3.5770494e-01
  1.2121999e-01
 -3.1013799e-01
  3.6597174e-01
 -1.5404062e-01
 -2.0500936e-01
  2.3713559e-01
 -6.9478147e-02
 -2.3679580e-01
 -9.5857191e-01
  5.2249914e-01
 -2.0812105e-01
  1.6761428e-02
 -3.8438281e-01
  5.3867650e-01
  5.8932674e-01
  2.6661186e-02
  2.6395206e+00
  9.1139644e-02
 -6.7992818e-01
 -5.7666272e-01
  3.8689658e-01
 -3.6520427e-01
  3.5448987e-02
 -2.1664968e-02
 -1.1445603e+00
  2.4117447e-01
  3.3300701e-01
  4.9106744e-01
 -3.5402693e-02
  1.3407278e-01
  1.9233184e-01
  4.5969895e-01
 -1.4444061e-01
 -1.5967258e+00
 -1.1137917e-01
 -2.5795093e-01
  1.2427779e-01
  8.4058243e-01
  1.2769668e+00
 -1.8766919e+00
  1.1957774e+00
 -5.5094206e-01
 -9.9378133e-01
 -5.5979627e-01
  1.9902828e-01
  4.8986220e-01
  7.9421073e-02
  4.6583501e-01
  7.2852117e-01
 -4.0056193e-01
 -1.7936674e+00
 -1.8203019e-01
 -4.5460007e-01
 -1.4172807e+00
 -3.7156022e-01
 -1.0322899e+00
 -6.3825205e-02
 -5.2839130e-01
  8.5248798e-01
  6.1956787e-01
 -1.6593002e+00
 -1.7261466e+00
  1.5225807e-01
  3.4982738e-01
 -1.8426697e-01
 -6.4960115e-02
 -4.4092265e-01
  1.9623907e-01
  7.6440528e-02
  8.1228763e-01
 -9.8970704e-02
 -2.1896267e+00
 -4.5724845e-01
  4.6657109e-01
  7.4473101e-01
  8.5588264e-01
 -9.2534035e-01
 -8.4168929e-01
  3.8225451e-01
 -7.5842881e-01
  8.5012075e-03
  4.9024951e-01
  8.4432703e-01
 -8.6400396e-01
  1.3150327e+00
 -1.7412319e+00
 -1.7285459e-01
 -2.5705194e-01
  6.6490397e-02
  3.2009596e-01
 -6.0863173e-01
 -1.0923311e+00
 -2.3763305e-01
  2.3071125e+00
  1.3590029e+00
  9.2743099e-01
  3.2854038e-01
 -9.5013487e-01
 -5.0477046e-01
 -2.7038383e-01
  4.9460988e-02
 -2.1354537e+00
  5.7368374e-01
 -1.1344799e+00
 -2.0112328e-01
  1.2336707e+00
  1.1008010e+00
  2.9088926e-01
 -1.1197255e+00
 -1.5170600e-01
  5.1691741e-02
  4.2172000e-01
 -3.2184213e-01
  4.7023663e-01
 -1.1751558e+00
 -4.7263017e-01
  1.1615384e+00
 -1.0803904e-01
  5.4261887e-01
  1.6446733e-01
 -5.8198001e-02
  8.1517977e-01
 -3.6370772e-01
 -7.3256570e-01
 -2.3128182e-01
  2.4085289e-01
  1.9093348e+00
  5.6618709e-02
 -7.7925456e-01
  5.7753158e-01
 -2.5616715e+00
 -1.0103483e-01
  1.1444327e-02
  5.4099709e-01
  8.9769952e-02
 -1.6471575e-01
  9.2082702e-02
  9.1438341e-01
  1.1264428e-01
 -1.7286845e-01
  5.9899783e-01
  5.0154585e-02
  9.7197300e-01
  5.0117874e-01
  1.3054731e-01
  1.1185134e-01
 -2.7388915e-01
 -9.4282322e-02
  1.1433138e-01
  9.7584367e-02
 -1.1697064e-01
 -6.5494370e-01
 -5.6448215e-01
  2.7748439e-01
 -1.0980912e-01
 -1.1369189e-01
  1.7513682e-01
  3.2723001e-01
 -7.0156612e-02
 -3.1211951e-01
  2.2547791e+00
  2.3580945e-01
 -9.6923567e-02
 -3.1488153e-01
  8.2627572e-02
  5.1523334e-01
  2.2716583e-01
 -1.8737687e-01
  2.1005815e-01
 -4.3257621e-01
 -1.2964779e+00
  2.1894054e-01
 -4.7926357e-01
 -1.6649793e-01
 -8.0556017e-01
  6.5335131e-01
 -3.1253347e-01
  2.1405049e-02
  6.6723502e-01
  3.3546922e-01
  1.0974578e+00
 -1.2027241e+00
 -1.1864591e-01
 -2.2477229e-01
 -1.6750661e+00
 -4.4119349e-01
 -6.4948237e-01
  1.1731285e+00
  5.2600121e-01
  2.8274694e-01
  7.4927144e-02
  4.4897309e-01
 -1.3228349e-01
  8.4769434e-01
  1.2089536e+00
  8.0731705e-02
 -1.2814639e+00
 -6.9072473e-01
 -3.1063451e-02
  2.6418492e-01
  1.0533668e+00
 -3.4923012e+00
  6.8196721e-02
 -2.0299862e-01
 -2.8819752e-01
 -6.7971414e-01
 -1.7129332e-01
 -1.2250321e-01
  1.0614973e-01
  9.2950988e-01
  8.5733294e-01
  1.6540142e+00
  8.7159413e-01
 -7.2788811e-01
 -1.2742001e+00
  1.7739885e-01
  1.6737462e+00
  4.4414010e-02
 -1.5552043e+00
  1.3371687e-01
 -7.9719005e-03
 -7.5329673e-01
 -1.0356445e-01
  7.4085876e-02
 -1.8244874e-01
 -3.7779373e-01
  3.1137732e-01
  6.3047671e-01
 -3.1917065e-01
  2.5901449e-01
  3.5995446e-02
  6.8736249e-01
 -1.4002952e-01
  5.2506441e-01
 -8.6233515e-01
  4.8430842e-01
  1.5674531e+00
  8.0082938e-02
 -6.2363576e-02
  2.3415191e-01
  8.7623471e-01
  4.6184070e-02
 -5.7201368e-01
 -3.2103863e-01
 -6.4239323e-01
  3.8266978e-01
 -8.1715621e-02
  5.4809189e-01
 -1.5373740e+00
 -9.2949545e-01
 -1.8549857e-04
 -4.5936707e-02
 -3.9369264e-01
  1.9285779e-01
  4.5433098e-01
  2.1402160e-02
  5.7243284e-02
  5.5505443e-01
 -5.8901536e-01
 -1.7578081e+00
  2.0698746e-01
 -8.4707105e-01
  2.7024230e-01
  2.3911479e-01
 -1.5285701e-04
 -1.2020711e-01
 -2.6854498e-02
 -4.2504051e-01
 -1.3802676e+00
 -1.6382892e+00
  1.2737356e-01
 -2.0914803e-01
  6.1686480e-01
  3.2100457e-01
  2.9238018e-01
 -1.4511353e+00
 -5.5688667e-01
  2.1785110e-01
 -7.7377850e-01
 -4.6371222e-01
 -3.0810639e-01
 -8.3423322e-01
  2.2672595e-01
  3.2327972e-02
 -1.1820783e-01
 -1.3896481e+00
  2.6830585e+00
 -4.8967573e-01
  4.9010369e-01
 -4.9133357e-01
  7.2761708e-01
 -1.0915141e+00
  2.3380932e-01
  5.7149309e-01
  4.5665842e-02
  8.2036716e-01
 -1.7333344e-03
  2.5301141e-01
 -5.4112774e-01
 -1.5198691e+00
 -8.6831772e-01
 -9.5180281e-02
 -2.9142621e-01
 -1.1381534e-01
  3.2970574e-02
 -5.7644397e-01
 -7.2470045e-01
 -4.8332462e-01
  1.4416517e-01
  6.8411760e-02
 -1.1298956e-01
 -2.7533196e-02
  1.1028821e-01
 -6.9497144e-01
 -1.4108015e+00
  9.2642599e-01
  1.5130109e-01
 -1.8225473e-01
  6.1858147e-01
 -2.8259504e-01
  5.8740966e-02
 -3.9631043e-02
 -1.6396396e-01
 -3.2078451e-01
  5.1088560e-01
  1.7142902e-01
 -6.7799211e-02
  4.8512542e-01
  9.2566945e-02
  4.8504362e-01
 -3.9783508e-01
 -4.2380914e-01
  6.4222264e-01
  5.5701834e-01
 -1.2221613e-01
 -2.3779000e-01
  3.7248889e-01
 -1.8133070e-02
 -1.9223105e-02
  1.8019186e-01
  5.1871210e-01
 -3.4413823e-01
  6.0277820e-01
  1.8333763e-01
  5.9295171e-01
 -1.2089537e-02
 -9.7375077e-01
  4.7291446e-01
 -5.1411492e-01
  2.0866457e-01
  8.4563690e-01
  3.0253485e-01
  6.2701839e-01
 -3.2905942e-01
 -3.1638867e-01
 -1.1702634e-01
 -2.2256771e-01
 -9.5974915e-02
 -6.4695671e-02
  6.4268755e-03
 -5.8584255e-03
  2.9060185e-01
 -9.0702400e-02
 -1.6246559e-01
 -7.3771842e-02
 -2.7173255e-02
 -7.9113379e-02
 -6.9500142e-01
  2.9155034e-01
 -3.5118067e-01
  8.2513131e-02
  8.1031263e-02
  9.7622669e-01
  3.0399999e-01
 -1.1181279e-01
 -8.2207121e-02
 -1.7798655e-01
  4.4253688e-02
 -7.5389564e-02
 -1.7602751e-02
  1.5051231e-01
 -1.5986761e-01
 -3.4744626e-01
 -1.2489114e+00
  4.4567786e-02
  3.6197245e-01
 -4.6504575e-01
  5.1298702e-01
  1.6937488e-01
  7.3300040e-01
 -9.6286394e-02
  2.2717665e-01
 -7.2347856e-01
  1.4529976e+00
  3.0444214e-01
  3.3141181e-01
 -6.0951173e-01
 -2.9334259e-01
  4.9189663e-01
  1.9351261e+00
  2.4106002e-01
 -1.1518072e+00
 -1.2638369e+00
 -3.4589484e-01
  1.0854137e+00
  2.3721100e-01
  9.8105866e-01
  9.9402100e-01
 -1.1528686e-01
  3.1648025e-01
 -3.2856364e-02
  8.7537068e-01
 -6.4067550e-02
 -3.5953537e-01
 -5.6308424e-01
  5.1716372e-02
 -2.3958670e-01
  4.4221368e-01
 -8.4189487e-01
 -6.4061433e-01
  3.1574887e-01
  6.3661629e-01
 -1.3190028e-01
 -2.6743829e-01
 -8.7628704e-01
 -2.1370544e-01
  1.4154354e-01
 -2.3906100e-01
 -4.6572670e-01
 -1.2504311e-01
  7.2979778e-02
  2.5156643e-03
  7.6538146e-01
 -4.9633759e-01
 -2.5276956e-01
 -2.8789642e-01
  4.7305602e-01
 -1.1471204e+00
  5.1772761e-01
  1.5555856e+00
  5.9975490e-02
 -1.5281522e+00
  3.1097081e-01
  7.6478429e-02
 -2.2316164e-01
  7.6799434e-01
  1.2602918e-01
 -3.1676704e-01
  1.8266443e-02
 -1.2323732e+00
  1.7403372e-02
  7.6060313e-01
 -2.3731649e-01
 -4.4162214e-01
  4.2555609e-01
  5.6065053e-01
  3.2000482e-01
 -2.7753177e-01
 -6.4794654e-01
 -4.4565827e-01
  1.0975853e+00
  4.7191877e-02
 -5.9477431e-01
 -9.1504872e-01
 -1.2102960e+00
  2.4831076e-01
 -2.2722086e-01
 -4.9179834e-01
 -1.4246223e+00
 -1.0398104e+00
  2.6934433e-01
  7.7915514e-01
  2.4930623e-01
  3.2706305e-01
  7.0409900e-01
  3.3894062e-01
  4.9463320e-01
 -2.0158062e+00
 -5.0240016e-01
 -4.7320831e-01
 -2.4330254e-01
  1.4631227e+00
  2.3069029e-01
  3.5049009e-01
  3.2285336e-01
  1.0181398e+00
 -3.6768833e-01
 -1.0613958e-01
 -1.2828999e+00
 -3.2071689e-01
 -7.4127465e-01
 -1.4872034e+00
 -4.8674997e-02
  4.6907350e-01
 -1.4862663e-01
 -3.8840893e-01
 -9.8653215e-01
 -3.7785895e-02
 -7.2426364e-02
  3.5655680e-01
  1.0277289e+00
  4.3307331e-01
 -4.0900216e-01
 -3.4894022e-01
  8.0402339e-01
  2.1333878e+00
 -4.4013566e-01
 -1.8174224e+00
 -5.9790367e-01
  1.5871906e+00
 -6.8907958e-01
 -3.3757851e-01
 -6.3828826e-01
 -4.3328963e-02
  3.6119291e-01
 -5.4815733e-01
 -1.0331212e+00
 -8.4322715e-01
  1.2447641e+00
  1.2370539e+00
 -2.3148057e-01
 -8.5114169e-01
  1.0537674e+00
  3.8678584e-01
 -6.2443709e-01
  6.8471760e-01
 -6.1455065e-01
  4.3030927e-01
  6.2569225e-01
 -1.4561696e+00
  1.4822766e+00
  9.3768424e-01
  2.1172509e-01
 -5.8898073e-01
 -7.9897366e-02
  2.1221249e-01
  1.4912572e+00
 -4.9117675e-01
  3.3669531e-01
  6.6893440e-01
  9.4356948e-01
 -2.1442145e-02
 -4.7576866e-01
 -7.1059927e-02
  8.9492476e-01
 -1.1019498e+00
  5.9837443e-01
 -4.1442838e-01
  8.2324964e-01
 -4.1876704e-01
  1.7419598e-03
  9.2168832e-03
  1.8212621e-01
  4.9418446e-01
 -2.4989681e+00
  3.4498382e-01
 -3.3248186e-01
 -5.1655573e-01
  4.8225340e-01
 -2.5969991e-01
  1.3806742e-02
  2.8818113e-01
 -9.4368666e-02
 -8.1652209e-02
  3.8684348e-03
 -2.4197248e-01
 -6.2245402e-02
 -1.6312946e+00
 -2.0282608e-02
 -5.7652283e-01
 -1.7054829e-01
 -2.9189327e-01
  4.8869479e-01
  1.7776506e-01
  2.5799081e-01
 -8.7974066e-01
  1.5257422e-02
 -3.7869057e-01
  5.9112448e-01
 -8.7987232e-01
 -2.0778008e-01
 -2.1535002e-01
  2.5540927e-01
  3.3546218e-01
  9.8596826e-02
  3.8348779e-01
  9.0953243e-01
 -1.3891505e-02
  2.7708235e-01
  5.1997906e-01
 -1.4166899e-01
  7.4280626e-01
 -2.7323151e-01
  3.6214586e-02
 -1.1225287e+00
  1.4388796e+00
  6.8577535e-02
  2.9339686e-03
 -5.1898682e-01
 -3.7840131e-01
  4.9548361e-01
  9.1216803e-02
 -1.6289274e-01
  8.2733881e-01
 -9.2867255e-01
  5.2214980e-01
 -2.2653759e-01
 -2.5231445e-01
  9.5799273e-01
  3.7044364e-01
  7.9183239e-01
  6.0008711e-01
  4.1770595e-01
  7.6506786e-02
 -3.6374843e-01
  8.4973283e-02
  1.3327661e-01
 -3.8895303e-01
  1.1626521e-01
  7.5554676e-02
 -3.3316240e-01
 -3.3640031e-02
  6.8587184e-02
 -5.8379304e-01
 -3.5238901e-01
  1.1627177e+00
 -1.1283078e-02
 -2.6078054e-01
 -2.9531571e-01
  6.1400417e-02
 -1.4355234e+00
 -4.7831765e-01
 -3.6067799e-01
  1.4321099e-02
 -1.9202599e-01
  1.4793980e-01
 -4.7030410e-01
 -4.4281840e-02
  3.9142396e-02
 -2.3925529e-01
 -1.0576104e+00
 -3.4395513e-01
  2.1157470e-01
 -6.4123267e-01
 -1.3188298e-01
 -3.3096790e-01
  3.2471761e-01
  7.7122778e-01
  1.2206374e-01
  1.9215433e-01
 -3.3999872e-01
  1.2537995e-01
 -3.1065476e-01
 -1.0324312e+00
  9.3522526e-02
  1.9706188e-02
  1.3034098e-01
  4.6259588e-01
  1.3197887e-01
  4.4602554e-02
 -1.2466531e+00
  2.2399896e-03
  9.4913274e-02
  4.4305381e-01
  2.7181014e-01
  6.2696978e-02
 -4.3229651e-01
 -8.2217172e-02
 -1.0099639e-01
 -1.9254515e-01
 -5.8209693e-01
  4.8416921e-01
 -6.4765051e-02
 -2.8608704e-01
 -2.2502644e-01
  7.9101950e-01
  2.1440306e-01
  4.2393696e-01
 -3.1320623e-01
  1.7166967e+00
 -2.7334622e-01
 -1.3049680e-01
 -3.3623621e-01
  1.2471730e-01
 -2.1843944e-01
 -7.2173709e-01
 -1.3573608e+00
 -5.2931106e-01
  4.7805015e-02
  5.5497772e-01
 -3.9299417e-01
  1.1246686e+00
  1.5929846e+00
  3.6113730e-01
 -6.1551279e-01
 -1.5845245e-01
 -2.2892162e-01
 -1.2177779e-01
 -4.8700616e-01
 -3.8384053e-01
  8.8786191e-01
 -4.8571667e-01
 -1.9886144e-01
  2.7749920e-01
  6.8917108e-01
 -2.5444311e-01
  7.4691856e-01
 -1.0677384e+00
  9.3505353e-02
 -3.4926930e-01
  1.9074379e+00
  1.6854633e+00
 -6.8831778e-01
  2.1010795e-01
 -3.4841284e-01
  5.6537870e-02
  3.9659438e-01
  1.8920818e-01
 -1.0827583e-01
 -4.3081149e-01
  9.8904538e-01
 -4.8986560e-01
 -6.6255510e-01
  6.1635897e-02
 -9.4599463e-02
 -8.6657248e-02
 -4.0805826e-01
 -1.9143417e-02
  4.9792889e-01
  1.9402830e-01
 -5.5005962e-01
  2.6903250e+00
 -7.7813670e-02
 -9.5466405e-02
 -2.6603204e-01
  1.1673586e+00
  1.5029763e-01
  1.8196230e-01
  2.1480621e-01
  1.0896463e-01
 -6.5155923e-02
  5.5159122e-01
 -7.7483736e-02
 -1.1497212e-03
  2.1107376e-02
  8.8975030e-01
  3.3089834e-01
  8.3839387e-02
  7.8524071e-01
  2.8024244e-01
  2.1673642e-01
  4.3617156e-01
 -5.6933384e-02
  1.1138668e+00
 -3.0634475e-01
  3.4388307e-01
  2.7188411e-01
  5.0143946e-02
 -6.0188208e-02
  4.3803167e-01
  4.2093417e-01
  9.2517400e-01
 -1.6707166e-01
  3.5262743e-01
 -2.6103339e-01
 -1.0327156e+00
  3.8192581e-02
 -2.5937793e-01
 -2.4686961e-01
 -2.3587376e-01
  1.9016673e-01
 -8.5992897e-01
  1.2576523e+00
 -1.7773923e-02
  3.9798599e-01
 -9.8747694e-01
 -2.4492764e-01
 -2.2835414e+00
 -2.7277781e-02
  2.8202450e-01
  2.7883273e-01
 -3.6686102e-01
  2.3394363e-01
  6.1941683e-01
 -5.2188748e-01
  9.1047913e-01
 -1.8609734e-02
 -4.1092077e-01
  1.7763627e-01
 -4.4148650e-02
 -1.9132755e+00
  1.2779056e-01
 -1.6939771e-01
 -2.5444874e-01
  1.5163706e-01
 -9.6109837e-01
  5.8983278e-01
 -2.7616680e-01
 -2.9437801e-01
  6.6753644e-01
 -3.2575810e-01
 -1.5056942e+00
  1.1388619e-01
 -3.3439234e-02
  1.7350554e-01
  6.9812946e-02
  1.1082871e+00
  1.9305995e-01
 -4.0923887e-01
 -2.4159659e-01
  1.6241632e-01
  1.6117075e-01
  1.8730842e-01
 -9.6724957e-02
  4.8880827e-01
 -1.0667320e+00
  1.8379165e-01
  1.3107258e-01
  6.3074820e-02
 -1.6231845e-01
 -5.4168552e-01
 -1.8749519e-01
 -3.0789286e-01
  7.0851468e-02
  8.4492612e-01
 -2.0762950e-01
  2.7894910e-02
  2.9113889e-01
  8.6273663e-02
 -3.9899461e-03
 -5.5051458e-01
  2.3102476e-01
 -3.4180641e-01
 -5.1937610e-02
 -9.5364630e-02
 -8.2889688e-01
 -5.2045274e-01
  3.5110500e-02
 -4.4466671e-01
  3.5394007e-01
  7.9470199e-01
 -2.6609233e-02
 -3.6364369e-02
  2.0278012e-02
 -1.7303409e-01
  2.2696202e-01
  1.5840057e-01
 -3.5389429e-01
 -1.8583582e-01
  3.2013640e-01
  2.0509578e-01
  5.3800243e-01
  1.4566150e-01
 -3.8563129e-01
  3.9872402e-01
  2.5678250e-01
 -1.7037517e-01
 -1.5835053e-01
  3.0986670e-01
  3.0443957e-02
  1.5624076e-01
 -1.1911388e-01
 -5.4236613e-02
  6.5966465e-02
  5.7895845e-01
  4.7941026e-01
  1.7643283e-01
  3.4739986e-01
  3.9560598e-01
 -5.5483031e-01
  1.3748406e-01
  1.5881170e-01
 -2.1481698e-02
 -1.0438766e-01
 -3.3094379e-01
  1.3359264e-01
 -5.4269028e-01
  9.7163014e-02
 -4.3194509e-01
 -2.2112908e+00
  9.8353652e-03
 -4.4804379e-01
 -1.2279530e-01
 -3.5775727e-01
  3.9623299e-01
 -3.8988775e-01
 -1.4523333e-01
 -2.1172038e-01
 -7.7221280e-01
  1.5549067e-01
 -9.1991180e-01
 -1.5176462e+00
 -1.2830200e-03
 -4.5988239e-02
 -1.2911443e-01
 -2.7272329e-01
 -1.0671378e+00
  9.5487690e-01
 -2.9375708e-01
 -3.1688014e-01
  3.5844031e-01
 -6.5607503e-02
  1.2639285e+00
 -5.1646858e-01
 -3.4369776e-01
 -5.7015115e-01
 -3.7380701e-01
 -3.3566880e-01
 -1.7519794e+00
 -6.9764948e-01
 -9.1495758e-01
  4.4707146e-01
  1.8310933e-01
 -1.3331941e+00
 -3.5271209e-02
 -1.0202029e+00
  4.2985874e-01
 -1.4959303e+00
  1.5503137e-01
  1.4016048e+00
 -6.4348564e-02
 -2.5563696e-01
  2.2428179e-01
 -1.0037348e-01
 -1.6204991e+00
 -3.0449843e-01
 -1.0647730e-01
 -1.4747769e-01
 -6.8934202e-01
  1.1237799e-01
  1.5320215e+00
 -1.7538778e-01
  4.6279821e-01
  6.9061393e-01
 -4.4639584e-01
  1.1088103e+00
  2.8497865e-02
  1.7893805e-01
  1.6584110e-01
 -7.5481731e-01
  1.5679353e-01
  9.1079682e-01
  1.1178069e+00
  9.8213905e-01
 -1.2292670e-01
  1.0741147e-01
 -2.1644108e-01
 -5.7135713e-01
 -1.8036036e-01
 -5.9498668e-02
 -3.7040102e-01
  1.1544988e-01
 -3.9125374e-01
 -1.6739212e-01
  2.2229864e-01
  1.0668991e-01
  3.3963165e-01
 -6.8786629e-03
  1.1597570e+00
 -1.4540580e-01
  4.2036396e-02
  4.5686111e-01
 -2.2044886e-02
 -1.1334232e-01
  3.6431655e-01
  2.6433671e-02
 -1.2264754e-01
  3.7548931e-03
  4.5883244e-01
 -1.6330631e+00
  6.0465574e-01
  2.5353798e-01
 -2.4870034e-01
 -2.0189862e-01
  1.6734575e-01
  6.0278889e-02
 -3.1207329e-01
  5.3703296e-01
 -9.6029896e-01
 -1.1766716e-01
 -2.9864761e-03
  4.0595159e-01
 -2.0951593e-01
 -6.6060418e-01
  2.6322865e-01
  2.3237612e+00
 -8.9327499e-02
 -7.6384014e-01
  4.9922116e-02
  2.3145050e-01
 -3.3089921e-01
 -5.5530190e-01
 -6.1077553e-01
  7.0423138e-01
  8.1367117e-01
 -1.4411919e+00
  1.9384988e-01
  5.8792815e-02
 -7.2230004e-02
 -1.8470399e-01
 -1.5632331e-01
 -9.2205215e-01
  7.3661280e-01
  8.6112344e-01
 -1.7299975e-01
  1.0594651e-01
 -2.4487065e-01
 -1.4128830e-01
  2.5305846e-01
  1.0774562e+00
  7.3689981e-03
 -1.6108547e-01
 -5.2941903e-02
 -2.5620779e-01
  2.1223919e-01
 -4.2823848e-01
  9.6622184e-03
  3.7705925e-01
 -1.6608082e-01
  4.9789593e-02
  4.1468099e-01
 -7.5809610e-01
 -1.7581785e-02
  1.7692760e-01
 -4.6566054e-01
  7.0684397e-01
 -3.4072813e-01
 -5.6619246e-02
 -2.2975805e-01
 -1.9987985e-01
  1.6261593e-01
 -9.2406936e-02
 -5.6063515e-01
 -1.2445078e-01
 -4.3387958e-01
 -4.0911011e-02
  4.7493760e-02
  1.8342987e+00
  9.5187896e-01
  1.9071829e-01
  4.3971604e-01
 -1.9524251e-01
 -7.9201959e-02
 -1.5765396e-01
 -6.6251755e-01
 -2.4907019e+00
 -2.7836168e-01
 -9.5204610e-01
 -9.7232021e-02
 -5.6678247e-01
  1.7767865e-02
 -1.2237824e+00
 -1.3157313e+00
 -7.1952558e-01
  7.7609825e-01
  1.4533535e-01
  1.6405864e+00
  2.1646135e-02
 -6.6171579e-02
 -8.1481659e-01
 -9.3199873e-01
  7.0495866e-02
 -8.1332332e-01
 -1.1213965e+00
  4.1424352e-01
 -7.2127461e-01
  7.3078461e-02
 -4.2113143e-01
 -7.7080107e-01
 -2.2872217e+00
 -6.1227989e-01
  9.6138358e-01
  7.5495505e-01
 -1.4706596e+00
 -1.7836909e-03
 -5.6878775e-01
 -5.8542341e-02
 -5.8877850e-01
 -1.0717633e-01
 -1.7162588e+00
 -5.8866638e-01
 -2.9735780e-01
  4.2742422e-01
 -5.7423431e-01
 -7.5681835e-01
 -1.2324072e+00
  9.5980905e-02
  1.4613329e-01
  1.6825299e-01
 -2.0640769e+00
  6.3098025e-01
  1.4499369e-01
  6.7335504e-01
 -3.8181029e-02
  3.0393872e-02
  1.3333838e+00
 -6.0684311e-01
 -7.7546042e-01
  2.5013988e+00
 -5.0454476e-04
  1.2012142e+00
 -1.0091626e-01
  5.8376098e-01
 -5.4780245e-01
 -6.0520166e-01
 -2.1826806e+00
 -6.1075431e-01
 -7.2470027e-01
 -4.4680315e-01
 -3.3655148e-02
  6.5364808e-01
  1.1112705e+00
 -1.0495724e-01
 -9.6958870e-01
 -1.0114081e+00
 -9.7003132e-01
  6.7714465e-01
  8.9058310e-01
  2.3584118e-01
 -2.8283817e-01
 -6.3884385e-02
 -4.3320176e-01
 -8.8173950e-01
  1.1526774e+00
  6.9790334e-01
  1.7035980e+00
  6.9896865e-01
 -8.9079607e-01
  3.2355440e-01
  5.1203877e-01
  1.8669789e-01
  1.0604366e+00
  1.5849375e+00
 -1.2982199e-01
 -7.7918530e-01
 -1.2844155e+00
  1.3066127e+00
 -1.3674192e+00
 -5.5429149e-01
 -7.2615266e-01
  1.4469072e+00
 -2.0624061e-01
  6.6898209e-01
  5.8356780e-01
 -1.6517972e+00
  2.0471069e-01
  5.7403576e-02
  9.6241158e-01
 -1.5669206e+00
  6.6353607e-01
 -6.1126083e-02
 -5.6891674e-01
 -2.0181048e+00
  7.4896157e-01
  1.1673594e+00
  9.4285059e-01
  6.8689865e-01
  3.0786560e+00
  1.1220549e+00
 -1.1187506e+00
 -9.4500917e-01
  4.5090795e-01
  6.3713002e-01
  1.9144408e-01
  7.5198376e-01
  3.9634562e-01
 -2.0800662e+00
 -1.3628315e+00
 -5.8488095e-01
  1.0115042e+00
 -9.7629547e-01
  9.3337375e-01
  3.5892281e-01
 -1.0215899e+00
 -7.4490279e-01
 -3.6158395e-01
 -1.0485967e+00
  2.2773178e+00
  4.2490608e-01
 -1.3148757e+00
 -4.5312634e-01
 -1.4233439e+00
 -1.4222608e+00
  5.8313930e-01
  7.1622771e-01
  8.5226989e-01
 -3.1996065e-01
 -2.8276876e-02
  3.7729189e-01
  4.2108685e-01
 -9.0831995e-01
  1.3294712e-01
 -9.0066200e-01
 -1.9066490e-02
  9.2534542e-01
 -1.1982927e+00
 -5.0633889e-02
  6.0343522e-01
 -1.3834395e+00
 -1.0429493e-01
  3.7635696e-01
 -4.7349215e-01
 -4.8042800e-02
 -8.7644041e-01
 -1.3320811e-01
  2.5572136e-01
  1.8752111e+00
 -1.2583388e-01
 -2.5742084e-01
 -8.0144966e-01
  5.2117437e-01
  1.8068466e-01
  4.5730513e-01
 -5.2897114e-01
 -1.5942153e-01
  4.2155111e-01
  1.1960194e+00
 -4.5743087e-01
 -1.0958670e-01
  4.3096516e-01
 -3.2168454e-03
 -2.0336126e-01
 -7.9666413e-02
  9.2832565e-02
  7.0515829e-01
 -1.2438440e-01
 -2.0584963e-02
 -7.3811226e-02
  1.4151485e-01
 -1.0939803e-02
  3.0979627e-01
 -1.5801497e-01
  1.6218640e-01
  3.9139962e-01
  9.0426154e-02
  6.1053151e-01
 -3.6468800e-02
 -4.5380175e-01
  1.9623709e-01
 -3.7541568e-01
  1.3828328e-01
 -8.0756657e-02
  3.7014902e-01
  1.6976339e-01
  1.7119196e-01
 -9.4987434e-01
  2.7494797e-02
  1.0089082e+00
  3.0498576e-01
  6.2867481e-01
 -1.0362700e-01
 -1.5643421e+00
 -3.3499002e-02
  2.4858692e+00
  3.8957176e-01
  7.0677680e-01
  1.5677253e+00
 -9.9352062e-01
  2.4792542e-01
 -2.7955693e-01
 -2.7396324e-01
  1.3235287e-01
  3.8156760e-01
 -7.2880143e-01
  2.9462570e-01
 -4.9582198e-02
  2.2134529e-01
  1.9450064e+00
  1.3528986e+00
  7.2308712e-02
  5.3721595e-01
 -1.6444738e+00
 -3.0619317e-01
 -7.6693457e-01
 -8.8823658e-01
  1.7036739e-01
 -2.8101459e-01
  2.2937691e+00
 -2.2977112e-01
  1.6778980e+00
 -3.5168219e-01
 -1.0631477e-01
 -9.2302221e-01
  8.6888981e-01
  3.3898678e-02
  4.0848801e-01
 -8.6343902e-01
 -9.8733895e-02
 -2.7662563e-01
  1.7020167e-01
 -1.2298307e+00
 -7.3951758e-02
  1.5805005e-01
 -4.8603916e-01
 -2.0308876e-01
  7.6313531e-01
 -2.2136216e-01
 -3.2660156e-01
 -1.6250162e-01
  5.6925923e-01
  4.5432287e-01
  5.6551129e-01
  2.9645693e-01
  6.1901695e-01
  2.9030940e-01
 -3.4283793e-01
  4.7928813e-01
 -1.0556284e+00
  1.3047905e+00
  4.3635237e-01
 -1.1259874e+00
  5.1029003e-01
 -4.9741971e-01
 -2.6668021e-01
 -2.9006746e-01
  6.2789530e-01
  4.7368154e-01
  2.7900571e-01
  4.7698879e-01
  5.8590099e-02
 -9.5487094e-01
 -1.5669744e-01
  3.8627151e-01
  2.1139969e-01
  2.6051453e-01
 -3.7542012e-01
  6.8223789e-02
 -3.7407264e-01
 -7.7074951e-01
  7.4528754e-01
  2.0742884e-01
 -3.2929632e-01
 -2.0707731e+00
  5.7069738e-03
 -7.4167925e-01
  3.1641924e-01
 -5.8019403e-02
 -1.5788764e-01
 -1.9443119e-01
 -7.2921365e-01
  1.0678736e+00
  1.2387718e-01
 -5.4310483e-01
  7.6225922e-02
 -3.2190424e-01
  2.3305180e+00
  4.4965178e-01
 -1.2750556e-01
 -2.7483127e-01
 -3.2719082e-01
 -1.5462575e-02
 -2.8090614e-01
  2.7717409e-01
 -3.6741915e-01
  8.7606806e-01
 -1.9231974e-01
  5.3726487e-02
 -1.3769232e+00
  1.6567087e+00
 -3.3119506e-01
 -9.5346337e-04
 -3.6734175e-02
 -3.5137113e-02
  4.3386653e-01
 -1.3285072e+00
 -4.3363771e-01
 -6.6018963e-01
 -1.3430675e+00
 -2.5813200e-02
  1.0739832e+00
 -2.6167130e-01
 -5.1354390e-01
 -7.9695731e-01
 -9.9746138e-02
  3.1925879e-02
 -2.1429490e-02
 -1.9473341e-01
  1.9391512e-02
 -1.9091918e-01
  5.6766546e-01
 -8.3788782e-02
 -3.6042479e-01
 -7.4034476e-01
  1.1886754e-02
  4.5476285e-01
 -8.2937676e-01
 -1.9198196e-01
  1.4502971e-01
 -4.9829528e-01
 -5.2512598e-01
  1.0490771e-01
 -1.0656704e-02
  9.6011132e-01
 -3.7487771e-02
 -6.6524422e-01
 -2.8963095e-01
 -8.2934886e-02
 -9.7058289e-02
  5.8116430e-01
  1.1909815e+00
  6.0618913e-01
  4.6089107e-01
 -3.5893664e-01
 -1.7475165e-02
 -1.9028029e-01
 -6.9868383e-03
  4.0451533e-01
  9.1288710e-01
 -1.2884631e-02
 -6.1474502e-01
  1.2469865e-01
 -1.0216754e-02
 -3.1606933e-01
  1.8867352e+00
 -8.9689934e-01
 -3.3383161e-01
  7.0359014e-02
  9.7215372e-01
  4.7540623e-01
  6.1366934e-01
  1.6917591e+00
  2.5646326e-01
 -9.9772058e-02
  3.7227616e-01
 -3.3278078e-01
 -8.7929063e-02
 -5.4073334e-01
  4.2411682e-01
 -8.7555420e-01
 -2.7509588e-01
  4.3681630e-01
  5.8026552e-01
  1.5380945e+00
 -7.3095518e-01
  5.3638572e-01
 -1.6410643e-01
 -2.7429131e-01
 -9.8143905e-01
 -7.1633430e-03
  3.2744670e-01
  3.9059231e-01
 -9.4537282e-01
 -1.8480720e-01
 -8.2123375e-01
 -3.5534030e-01
  3.7908876e-01
 -3.3274075e-01
  1.9922130e-01
 -2.4627906e-01
  2.4066994e-01
 -2.8550792e-01
 -1.3559183e-01
  6.5905881e-01
  9.2257690e-01
 -8.5032266e-01
 -1.3400187e+00
 -1.9999507e-01
 -3.9643192e-01
 -4.1686252e-01
  6.9953538e-02
 -1.2347341e-01
 -8.6528882e-02
  3.0482441e-01
 -2.5009686e-01
  1.5668458e-01
 -2.5770825e-01
 -6.6681653e-01
  6.2539065e-01
  1.1779124e+00
 -9.1473609e-02
 -4.2293262e-01
 -3.3185151e-01
  1.1494357e-01
 -1.3370432e+00
  1.6389542e+00
 -4.3848085e-01
 -1.7125225e-01
 -8.3046222e-01
 -3.3923948e-01
 -9.4529444e-01
  1.1323586e+00
 -5.4311246e-01
 -9.6128315e-01
  7.1853894e-01
  2.8316030e-01
  7.4339151e-02
  4.0914889e-02
  9.9153206e-02
 -1.2685017e-01
  1.3818926e-01
  2.6665232e-01
 -1.3816527e+00
 -3.3160463e-01
 -4.6557009e-01
  1.9096307e+00
  9.6046663e-04
 -2.6277158e-01
 -5.2927542e-01
  9.6732759e-01
  3.2301087e+00
 -2.9221427e-01
 -1.4846712e+00
 -2.7511796e-01
  2.5425239e+00
  3.4300700e-01
 -1.5136683e-01
  2.0912859e+00
  5.8758891e-01
  1.0733796e+00
 -1.3052043e-02
 -2.3517663e+00
  3.0374542e-01
  1.4686731e-01
  2.3956385e-02
 -8.6552227e-01
  2.7453607e-01
  2.0897539e-01
  5.4048944e-02
 -3.6300629e-02
 -3.0302930e-01
  3.7892538e-01
  1.0399152e+00
 -1.5541301e+00
 -2.1725628e+00
  5.2570504e-01
  3.2280758e-01
 -1.9647430e-01
 -1.7513678e+00
  1.6610714e+00
  5.8085585e-01
  7.6991892e-01
  1.4628664e-01
  2.7289362e+00
 -7.7933049e-01
  4.6545660e-01
 -2.2077661e-02
  6.7441636e-01
 -3.9421803e-01
  1.0244092e+00
  3.2390681e-01
 -1.1541961e+00
  1.8147473e+00
 -7.4154407e-01
  1.8416121e+00
 -1.1521322e+00
  7.4701107e-01
 -5.9960002e-01
  1.5321599e-01
  1.9519295e-01
 -2.3773549e+00
  6.5695405e-01
  1.2938172e+00
  2.1558766e+00
  2.8739753e+00
 -5.5781287e-01
 -1.2068292e+00
  1.5184609e+00
  1.3062698e+00
  1.6765474e+00
  2.9166601e+00
  6.6243179e-02
  1.0797288e+00
  6.7651653e-01
 -4.0556508e-01
 -2.4726527e+00
 -2.8472850e-02
 -3.5356081e-01
  9.4613351e-02
  5.8840501e-01
  1.5731674e-01
 -5.1589185e-01
  1.2201194e+00
  9.7597763e-02
 -1.0540102e+00
  5.2567983e-01
  2.5384381e-02
 -1.4958933e-01
  9.5156658e-01
 -4.2245442e-01
  7.4554734e-02
  2.7563572e-01
 -8.4438580e-01
 -1.4536526e+00
 -4.2811400e-01
  3.1923175e-01
  1.5954594e-01
 -1.5831232e-01
 -3.8661167e-02
  2.0509274e+00
 -9.8968871e-02
 -7.8087695e-02
 -7.0761406e-01
  1.0428823e+00
  5.2757299e-01
 -1.5640417e-01
 -8.9777365e-02
 -4.2612642e-02
  1.1341511e-01
  5.6366727e-02
 -1.6752262e-01
 -5.5887586e-01
  4.4324151e-01
 -9.8384148e-01
 -7.3758620e-01
  9.6368425e-02
  1.5948065e-01
 -1.4488466e-01
  4.1053426e-01
 -2.2673135e-01
  3.1897834e-01
  8.5386884e-01
  3.8803704e-02
  5.6485736e-01
  3.6143509e-01
 -5.0178405e-02
  1.0410810e+00
  3.1697124e-01
 -6.1769956e-01
  7.2376423e-02
 -1.4114749e-01
  1.5386324e-01
 -4.6011516e-01
  4.4355872e-01
  2.0557162e-01
  2.0772901e-01
 -8.5097271e-01
 -1.7341998e-01
 -1.5431532e-01
  2.3272681e+00
 -1.3788929e+00
  6.9154525e-01
  1.2960849e+00
  1.0253633e-01
 -1.0549396e+00
  1.1848464e+00
  4.5700011e-01
 -1.6336644e+00
  1.0318729e-01
  1.9105181e-01
 -8.1340641e-01
  5.4736412e-01
  1.4182378e-01
 -1.5056460e-01
 -8.8774574e-01
  1.9876934e+00
  2.6169205e-01
 -1.9247265e+00
 -4.2429069e-01
 -3.8624641e-01
  1.3549087e+00
 -2.8387555e-01
  1.7666258e-01
 -2.4012682e-01
  3.3987588e-01
  8.9079094e-01
 -7.9551053e-01
  5.9951758e-01
 -1.1577119e-01
  8.0493426e-01
 -2.5650552e-01
  9.0102720e-01
  2.2410791e-01
  2.9069471e-01
 -8.1140804e-01
 -9.6141225e-01
  1.4730133e+00
  1.3529617e+00
  4.5596436e-01
 -2.0755074e+00
 -1.0458233e+00
 -1.8725158e+00
  9.9411957e-02
  1.9506258e-01
 -1.9112197e-01
 -7.8379698e-02
  9.2153341e-02
 -3.5583157e-02
  5.3044665e-01
  1.1671831e-01
  1.5980986e-01
  5.4367816e-01
 -8.0015206e-01
  1.3134285e+00
 -5.1620102e-01
 -9.0931314e-01
  3.7741664e-01
 -9.9555397e-01
 -4.0793246e-01
 -2.9364213e-01
  1.5860165e+00
 -2.7789974e+00
 -1.9067568e+00
 -9.4973654e-01
  1.2290628e-02
 -1.0713123e+00
  6.8903577e-01
  3.4088030e-01
  2.1414246e-01
  2.1704221e+00
  1.1613729e+00
 -6.7774051e-01
 -1.0791337e-01
 -1.5408634e-01
  2.4764882e-01
  5.1441973e-01
 -1.3520086e+00
  1.1924360e+00
 -2.8070277e-01
  5.7917875e-01
 -4.6429524e-01
  5.1134902e-01
  8.4589493e-01
 -2.7820108e-02
 -2.1763132e+00
  1.2480710e-01
  9.6410990e-01
  1.9100879e-01
 -3.8925347e-01
 -2.9102072e-01
  5.4471314e-01
  1.6559991e+00
 -2.1527839e-01
  5.5941385e-01
 -4.1072804e-01
  7.6042289e-01
  1.0234924e-01
  7.0057577e-01
 -1.0801864e+00
  4.8900028e-03
 -5.2764934e-01
 -1.6701199e-01
 -3.8079777e-01
  6.6374414e-02
 -2.1313380e-01
  4.9046451e-01
 -1.8152072e-01
  4.2667929e-03
  3.6824185e-01
 -8.4467953e-01
 -6.9025713e-01
  1.7681299e-01
 -5.5755544e-01
  4.7546268e-01
  3.8114893e-03
  8.5657483e-01
 -4.5435128e-01
 -4.5684186e-01
  2.6154315e-01
 -1.8565027e-01
  1.4263783e-01
 -5.8211344e-01
 -3.5411906e-01
  3.8884291e-01
  3.2598203e-01
 -1.3042362e-02
  8.6535811e-02
 -1.3640475e-01
  1.1027287e+00
  4.3431258e-01
 -5.3529805e-01
  5.1694509e-02
  7.1917991e-03
  5.9279367e-02
  1.4055634e-01
  1.7331354e-01
 -1.8754163e-01
  3.0264524e-01
  4.0034768e-01
  1.0892848e-01
 -1.8194698e-01
  1.3459272e+00
  4.6406440e-02
 -2.3691380e-01
  2.8102663e-01
  1.5710378e-01
  2.9771563e-02
  5.5916391e-02
  1.7732751e-01
  5.3086352e-01
  4.7511649e-01
  1.5028946e-01
 -4.9204767e-01
 -6.9733821e-02
  2.2039208e-01
  1.1911211e-01
 -1.7864859e-01
  1.4300013e-01
  6.5204865e-01
 -7.7066883e-02
 -5.7341206e-01
 -5.0378177e-02
 -8.4205819e-03
  1.2268329e+00
 -1.7708483e+00
  3.5722739e-01
  8.1967688e-01
 -1.5958056e+00
 -1.7993255e+00
 -1.9450082e+00
  8.1809498e-02
 -1.3313537e+00
  1.0362662e+00
  2.2415538e+00
  7.6944925e-02
  1.1132748e+00
 -1.4550912e+00
  2.6425126e-01
  1.4918705e+00
  7.7529199e-02
 -6.8952501e-01
 -4.2056210e-02
 -7.8598991e-02
 -9.5954947e-02
  9.2677659e-01
  1.0303346e+00
  5.3875440e-01
  2.1105452e-01
 -1.5541323e-01
 -2.6489732e+00
  6.2001806e-01
  5.8930868e-01
  6.1852175e-01
  9.7508758e-01
 -3.9639509e-01
 -4.1063875e-04
 -1.6336715e+00
  5.8968741e-01
  1.1262960e+00
 -3.1343871e-01
 -1.1912646e+00
  1.6520410e+00
  2.1778668e-01
  9.7355115e-01
  2.6264727e-02
 -2.4506004e-01
  3.6204308e-01
  3.7411702e-01
  1.0121877e-01
  8.9075428e-01
 -2.8104833e-01
  1.6227107e-02
 -1.5943198e+00
 -6.5587991e-01
  8.9959437e-01
  8.1423175e-01
  1.3238284e-01
 -3.0535620e-01
  5.6567295e-03
  2.9224235e-01
 -2.6918475e-03
 -2.0959737e+00
  6.2137288e-01
  1.9926548e+00
 -1.6615275e-01
 -4.4744074e-01
  2.1447329e-01
 -1.9834980e-01
  2.9333955e-01
 -2.1605077e-01
 -6.0340422e-01
  1.4714807e+00
  2.8018060e-01
  3.0024813e-02
  4.4418201e-01
 -1.5294673e-03
  5.7561923e-02
 -1.8498994e-03
  2.2870614e-01
  1.9859914e-01
 -4.9801439e-01
 -8.6328238e-01
 -1.2506971e+00
  9.1857255e-01
  2.3714335e-01
  2.3003985e-01
 -8.4033445e-02
 -7.7783704e-01
  8.6414224e-01
 -3.2943195e-01
  6.1007202e-01
 -1.0154476e-01
 -2.2943387e+00
 -3.8571918e-01
 -9.2711043e-01
  1.1679430e-02
 -4.2537302e-01
  8.1495911e-01
 -9.0043110e-01
 -7.7879584e-01
 -7.2018290e-01
 -2.8988609e-01
  9.9302055e-03
  2.0998330e-01
  1.0152683e-01
  1.9636358e-01
  2.3144957e-01
  3.3927152e-01
 -3.0686802e-01
 -2.2871566e+00
  9.6885063e-02
 -4.8030868e-01
 -3.7554167e-02
  1.0134743e-02
 -9.8506436e-02
 -1.0361172e-01
  3.1785047e+00
 -5.3901219e-01
  2.1499826e-01
  2.9786877e-02
  8.2744700e-01
 -5.9375638e-01
  3.0159947e-01
 -1.2319087e+00
  5.1405084e-01
  1.0001739e+00
  6.2986308e-01
  5.7779685e-02
  2.3297316e-01
 -6.8014270e-01
 -4.3213251e-01
  3.5190305e-01
 -1.7157120e-01
 -1.9039584e-02
  1.9443233e-01
  2.9585436e-01
  2.3594826e-01
 -1.7476822e+00
 -4.6530936e-02
  6.5182942e-01
 -2.6520851e-01
 -1.9599244e-01
 -1.7015576e+00
  3.2033867e-01
  1.7254076e+00
  1.8334856e+00
 -1.6438279e+00
  1.7110153e-01
 -7.9191291e-01
  2.4719001e-01
 -6.0691422e-01
 -7.7575469e-01
  1.8972995e+00
 -1.1119065e+00
 -2.3264050e+00
 -4.2997390e-01
  3.2152209e-01
  5.6933212e-01
 -2.2803919e-01
 -4.4953614e-02
  1.1605700e-03
 -1.3024448e-01
  2.7523282e-01
  5.7126880e-01
  9.4193196e-01
 -4.5568831e-02
 -6.4399803e-01
  1.1952043e+00
 -1.0456948e+00
  7.5686800e-01
 -1.0943459e+00
  3.1306479e+00
 -1.0297561e-01
  8.6165249e-01
 -5.1230443e-01
  1.1893651e-01
 -5.3495944e-01
  7.8246228e-02
  1.3719924e-01
 -2.2996581e-01
  3.2930583e-01
 -3.6495411e-01
 -1.2289512e+00
 -8.8643432e-01
 -9.8328632e-01
  1.9311579e-01
 -4.3223090e-03
  1.3843099e-02
  6.4221849e-03
 -1.5969587e-02
 -1.9019694e+00
  9.9980813e-01
 -1.4085859e+00
  2.5193077e-01
  7.7107871e-01
  2.4756138e-01
 -1.9134410e-01
  3.0456567e-01
 -1.1984191e+00
 -1.5348114e+00
  3.3244947e-01
 -1.0608168e+00
  6.6471422e-01
 -4.2622808e-01
  7.3088062e-01
  2.6175740e-01
  1.5191483e+00
 -6.9962037e-01
 -1.4586848e-01
  5.4489744e-01
  1.6755190e-01
  2.5538483e-01
 -7.4273527e-01
 -1.9410865e-01
 -1.1733879e+00
 -6.3954276e-01
  3.5875341e-01
 -1.0581342e+00
 -1.2351253e+00
 -4.8023865e-01
 -3.5543537e-01
  1.5454059e+00
  8.9217938e-02
  7.7362365e-01
  2.1177458e-02
 -5.9314644e-01
 -6.0332990e-01
  2.9256198e-01
 -1.2475169e+00
  7.8825116e-01
 -4.7534749e-01
  1.5826813e+00
  2.3336080e-01
 -2.5439069e-01
  6.0985410e-01
 -2.1960560e-02
 -5.2025831e-01
  7.2993815e-01
  6.0334486e-01
 -3.0837890e-02
 -8.3526224e-02
 -1.0875597e+00
  6.1546825e-02
 -3.0156793e-02
 -1.2182568e-01
  2.5081900e-01
 -2.1273035e-01
  1.9249959e+00
 -2.3432150e+00
  2.8554085e-01
  8.4156650e-01
 -5.2181041e-01
 -8.3711935e-04
 -3.0216309e-03
 -1.1850456e+00
  1.2009811e+00
  8.5281783e-01
 -8.3578005e-02
  1.7784189e-01
 -1.4492335e+00
  2.0396883e-02
 -8.2467455e-01
  1.1416619e+00
  4.0413597e-01
  2.2223389e-01
  3.9189631e-01
 -4.4107983e-01
 -4.0891267e-02
 -1.0911220e+00
 -1.2986922e-01
 -1.8232466e-01
 -2.6196638e-02
 -1.6144350e+00
  1.7929330e+00
 -5.7420295e-01
  2.4884093e-01
  5.7093292e-02
  5.8907157e-01
 -1.4744641e+00
 -8.8404298e-01
  1.0242680e+00
  6.1577940e-01
  7.2532356e-01
  8.8454026e-01
 -1.4173982e-01
  9.0467083e-01
  6.0054284e-01
 -4.7067199e-02
  1.2875941e-01
 -4.5399541e-01
  9.4076477e-02
  3.8556907e-01
 -3.4403780e-01
  4.5729899e-01
  6.4961739e-02
  2.7232787e-01
  2.0301552e-01
 -6.4624089e-01
  7.5093871e-01
  1.4753088e-02
  2.9491991e-01
 -4.7973579e-01
 -2.6591972e-01
 -7.8373742e-01
 -7.7911951e-02
 -2.2162082e+00
  6.6334680e-02
 -1.7682873e+00
  6.3212305e-01
 -1.1401147e+00
 -8.6439282e-01
  9.8881774e-02
 -1.1758071e+00
 -7.4716270e-01
  8.0065496e-02
  1.3128530e+00
  1.3799031e+00
  1.5147270e+00
  1.9187607e-01
  5.9728283e-01
  6.5725255e-01
 -1.5565079e-01
 -4.6732032e-01
 -5.5874062e-01
 -7.4899182e-02
 -3.9901428e-02
  1.4704332e-01
  2.2800732e-01
  2.0997953e+00
  1.5549181e-01
  4.5624113e-01
  3.6525287e-02
  1.0556219e+00
  9.6723951e-02
 -3.3719036e-01
  4.7112632e-01
 -1.8715271e-01
 -7.8272885e-01
 -1.2536298e-01
  3.0527007e-02
 -4.1015795e-01
  5.2966859e-02
 -1.3494689e+00
  5.1971328e-01
  7.3870027e-01
 -1.5468000e-01
  5.7375216e-01
 -1.5752847e-01
 -9.4142191e-02
 -6.4906865e-01
 -3.1369376e-01
  1.0092540e+00
  1.9340086e-01
 -1.2544779e-01
 -2.4695884e-02
 -5.2054125e-01
  6.8378645e-01
 -4.5412487e-01
  8.5968512e-01
 -1.2134354e-01
 -4.4737285e-01
 -3.9531127e-01
  1.6751234e-01
 -1.3955432e-01
 -3.5584059e-01
  5.1259696e-02
  4.5136556e-01
 -1.9590345e-01
  6.6171962e-01
  2.4342982e-01
  4.3185386e-01
 -1.7611825e-01
 -2.0587230e-02
 -1.3254188e+00
 -7.5239360e-01
  1.6378100e-01
  7.6588131e-02
  6.4732559e-02
  4.2940727e-01
  7.6535392e-01
 -1.7834892e+00
 -5.9010208e-01
  9.9048293e-01
 -6.5601625e-02
  8.1763494e-01
  2.5606237e-02
  1.7150731e-01
  1.9909550e-02
  6.9082752e-02
  1.4361462e-03
  1.7505381e-02
  4.1326025e-01
 -9.9755031e-01
  5.4294300e-01
  2.1092016e-01
 -1.9670774e-01
 -2.1584067e-01
  1.7899992e-01
  1.1709383e-01
 -2.8892311e-01
 -6.3166356e-01
 -1.9293506e-01
 -3.5767195e-01
  6.5264232e-02
  6.3864321e-02
  1.3090719e-01
 -9.0641372e-02
  8.9706022e-01
 -3.4943429e-01
 -3.9016698e-02
  9.0503804e-02
 -6.8973131e-02
  1.0320053e-01
  1.7712298e-01
  3.9898112e-01
 -5.6539404e-01
 -1.2930620e+00
  1.7317519e-01
  5.0387913e-01
  4.3580163e-02
  1.6583410e-01
  2.0353612e-01
  1.0876740e+00
  3.8008115e-01
 -1.7479897e-01
 -2.4156323e-02
  1.5802819e-01
  3.5642540e-01
 -8.0480799e-02
  1.6206372e-01
  4.1158172e-01
  1.8324395e+00
  2.2982892e-01
 -2.9159256e-03
 -4.6327135e-01
 -3.8948762e-01
  4.4775125e-01
 -5.8575772e-02
 -8.2534438e-01
 -6.4672363e-01
 -5.2391273e-01
 -2.7537754e-01
 -1.6236750e+00
 -4.1605967e-01
  1.6427812e-01
 -3.7493688e-01
 -1.2161683e-01
 -6.9537938e-01
  1.7544955e-01
  8.2860529e-01
 -8.1479430e-01
  1.9915369e-01
  2.5759459e-01
 -7.7982405e-03
  6.8640631e-01
  2.0667736e-01
  2.1902813e-01
 -1.8959308e-01
 -3.2346499e-01
 -7.4007221e-02
 -3.1989756e-01
 -7.0432298e-02
  7.3039997e-01
  8.9017048e-02
 -5.9757131e-01
  4.4923303e-01
  4.0663984e-01
  2.9372102e-02
  6.2326062e-01
  4.2653032e-02
 -6.2444139e-02
  2.4217401e-01
  3.2782052e-02
  3.5781693e-01
  9.5008826e-01
 -2.7136678e-02
 -7.1306479e-01
  2.2667879e-02
 -2.1032965e-02
  3.3287245e-01
 -4.5364013e-01
  6.5608805e-01
 -3.8657326e-01
 -1.0367708e-01
 -1.6628404e-01
  1.4210701e+00
  3.1321830e-01
  8.7539800e-02
 -5.2808899e-01
 -7.8339458e-02
 -2.7399307e-01
 -6.5933394e-01
 -7.5100347e-02
 -1.3784243e-03
  3.4708324e-01
 -5.0924921e-01
 -2.2025615e-01
 -2.3448771e-01
  2.6386032e-01
  1.4607240e+00
  2.4936402e-01
 -5.2511877e-01
 -6.5133527e-02
 -7.9956305e-01
  2.6177803e-01
 -1.0690917e-02
  5.1551580e-01
 -9.0549362e-01
 -6.5734267e-01
  1.1880907e+00
  8.4509140e-01
 -4.1831028e-01
  8.5548736e-02
 -7.7289891e-01
  6.0422575e-01
 -2.6533961e-01
 -3.2887399e-01
  1.9358965e+00
  8.3502412e-01
 -3.8120759e-01
  3.1591803e-01
 -3.9377767e-01
  6.2440801e-01
  5.8839792e-01
 -5.5030089e-02
 -3.0847341e-01
 -3.9942923e-01
  3.1318545e-01
 -6.3682461e-01
 -4.3727881e-01
 -2.3314096e-01
  5.5713439e-01
  3.8289407e-01
  3.5312331e-01
 -6.4846620e-02
  1.9663015e-01
  2.3939598e-01
 -4.2192607e+00
  3.4048777e-02
  1.3112477e+00
 -3.0628449e-01
  1.4818271e-01
 -1.3546221e-01
  3.9722711e-01
  5.0181502e-01
 -3.4533197e-01
  3.5680294e-01
 -4.5074517e-01
 -1.3022171e+00
  7.4845737e-01
  3.0811945e-01
  6.0194589e-02
 -3.9787453e-01
 -5.7880962e-01
  4.2662367e-01
  9.8375967e-03
  1.1490169e+00
 -9.9751323e-02
 -3.8031533e-01
 -4.8365146e-01
  1.6691387e-01
 -1.4926811e-01
  3.7683636e-01
 -4.5500571e-01
 -8.8790160e-01
 -9.3921977e-01
 -3.2206509e-01
  9.2860544e-01
 -4.1576931e-01
 -2.4134495e+00
  4.6717167e-02
 -7.4297518e-02
  1.8589151e-01
  4.0871602e-01
  9.1884530e-01
 -2.7619189e-01
  1.0322124e+00
 -6.5763307e-01
  5.8131164e-01
  8.3648878e-01
  3.8279155e-01
  4.2125940e-01
 -4.2938769e-01
 -2.5164327e-01
  3.0896413e-01
  1.7064071e-01
  6.3651271e-02
 -1.7603929e-01
  2.0496454e-02
 -1.2353054e-01
  1.1631097e-01
 -2.3287121e-02
  6.9843769e-01
 -7.2075123e-01
 -2.5166571e-01
  6.6267192e-01
  4.4574195e-01
  2.5544604e-02
  5.9479728e-02
  2.6120374e-01
 -7.2696340e-01
  1.1874732e-01
 -6.2237161e-01
 -3.1164834e-01
 -3.3826447e-01
  1.4815170e-01
 -3.1031346e-01
  9.6214212e-02
  1.4044556e-02
 -7.7479857e-01
  3.9249024e-01
 -7.0133287e-01
  8.7838805e-01
 -7.7912368e-02
  2.9084403e-02
 -1.0666821e+00
  3.8728327e-01
  2.6939738e-01
 -4.2990756e-01
 -2.8987283e-01
  3.0667916e-01
  1.3732772e-01
  1.3719591e-01
 -1.1201569e+00
  4.0899482e-01
  8.9880675e-01
 -1.1030102e+00
 -1.1994913e-02
 -2.5947511e-01
  9.4512004e-01
  4.7780681e-02
  2.0610308e-02
  1.1110134e+00
  1.8910852e-01
  1.3769746e-01
 -1.9733270e-01
  1.0491664e+00
 -3.1177166e-01
  3.4719971e-01
 -3.5684320e-01
  8.5144892e-02
 -1.5235234e+00
 -1.8887657e-01
  4.8453912e-01
  3.2096758e-01
  2.1671011e+00
  3.1376648e-01
 -3.0818224e-01
 -1.8551803e-01
  3.5296354e-01
  1.9554053e-01
  2.3855406e-01
  5.5802733e-01
 -2.0094189e-01
  1.8418634e-01
  3.8987541e-01
  6.3451660e-01
 -3.4408484e-02
  4.7742790e-01
  9.6574032e-01
 -6.8696308e-01
  9.5027500e-01
 -3.4530735e-01
 -4.7107083e-01
 -7.4019626e-02
 -1.0999749e-02
 -5.7516783e-01
 -4.5261150e-03
  1.1331866e-01
 -6.9540966e-01
 -1.2660550e-01
  9.9178368e-01
 -1.2988076e+00
  3.8261712e-01
 -1.5820643e-01
 -6.2649816e-02
 -1.1858411e+00
 -3.0244499e-01
 -4.0160865e-02
  6.8114245e-01
 -2.1121079e-01
  1.9120690e-01
  8.0361015e-01
 -1.5540440e-01
  3.9889836e-01
 -3.6290547e-01
  6.4407259e-01
  2.2195275e-01
 -1.0419466e-01
  6.8711483e-01
  9.5640615e-02
  6.9648015e-01
  5.3030866e-01
 -2.0055926e+00
 -3.5508755e-01
  4.6863335e-01
  3.1476629e-01
 -6.8828821e-02
  2.3778887e-01
  2.5140502e+00
 -3.7750874e-02
  2.0388532e-01
  3.2549869e-02
  7.4812239e-01
  1.3990608e+00
 -2.4748076e-01
  2.2117442e-01
 -8.4075087e-01
 -1.0969281e+00
  7.2325200e-01
  2.3267120e-01
  6.3652903e-01
  3.9907524e-01
 -7.5594723e-01
  2.6507830e-02
  1.6687295e-01
  2.3915196e-02
  8.1851117e-02
  1.2263689e+00
  4.6070199e-02
  1.3028864e+00
 -1.1090875e+00
  1.1712439e+00
 -2.2881979e-02
  3.6532560e-01
  3.1516957e-01
  4.8725078e-01
 -9.1606662e-02
  9.4958591e-01
  8.7538081e-01
 -3.6691046e-01
  1.3037488e+00
 -3.2294548e-01
  5.1298362e-01
 -1.6287636e+00
 -1.5845416e+00
 -1.7101480e+00
 -1.0756559e+00
  1.0195214e+00
  8.3980866e-02
  6.4065456e-01
 -1.1551698e-01
 -1.0456184e-01
 -3.2471639e-01
 -9.4940585e-01
 -3.4439126e-01
  4.5408237e-01
  3.8993560e-02
 -5.5032521e-01
 -3.3998832e-01
  5.2037094e-02
 -7.9405737e-01
 -2.3813173e-01
  4.5537677e-01
  4.3362218e-01
  3.5721283e-02
  3.4408253e-01
  1.9654234e-01
  1.9651844e-01
 -3.1378141e-01
 -1.1889155e-01
 -1.4903870e-01
 -2.7146834e-01
  4.6547493e-01
 -6.4108551e-01
  1.6944681e-01
  8.8503367e-01
  4.4763485e-01
  1.8570725e-02
 -3.9513420e-02
  7.2415751e-01
  8.4009373e-01
 -1.4551236e-01
  1.9290408e-01
  5.1581196e-02
  3.6028790e-01
  1.1675574e+00
  1.0276802e+00
  1.4559048e-01
  2.6234481e-01
 -3.9555252e-01
  9.7127080e-01
  6.6255170e-01
 -4.3348733e-01
 -1.5423429e-01
 -3.6253831e-01
 -4.0069500e-01
 -3.4263235e-01
 -1.7500223e-01
 -2.3985773e-01
 -4.9353591e-01
 -3.0938316e-02
 -7.3724389e-02
 -2.9826954e-01
  2.5356281e-01
  1.0190516e+00
  1.7589304e-01
  9.3354249e-01
  4.3447173e-01
 -8.3642229e-02
 -1.0905538e+00
 -2.4934585e-01
  6.9932034e-03
 -1.3818783e+00
 -6.6890615e-01
  1.1649773e-02
  1.0459274e+00
 -3.8066664e-01
  4.4940570e-01
  2.4559028e-01
 -2.1970841e-01
  1.4537840e-01
  7.0974934e-01
 -7.9136379e-02
  5.1943198e-02
  1.0261943e+00
  1.8149267e-01
 -7.6598287e-01
 -4.2825869e-01
 -1.2723921e-01
  2.2123669e-01
  1.3277803e-01
 -3.8403231e-01
  9.8147863e-01
  3.5563028e-01
  3.0768076e-01
  1.0866681e+00
  4.0362847e-01
  3.6283103e-01
 -1.5219462e-01
 -1.7165558e-01
 -4.0442880e-02
  1.6986204e-02
  1.5276556e+00
  6.3806146e-01
  1.2143831e-01
 -3.6151403e-01
 -1.0759776e+00
 -1.0875128e-02
 -1.3710707e+00
  2.4384449e-01
  4.3870026e-01
 -7.4204195e-01
 -6.1419630e-01
 -4.1274060e-02
 -3.2339293e-01
 -6.8463099e-01
  3.2812050e-01
  1.1226854e+00
 -1.8392348e-01
 -1.8001443e-02
  6.1716753e-01
  4.9656418e-01
  4.9262822e-02
 -1.1833036e-01
 -2.5652108e-01
 -1.3191602e-01
  7.1876371e-01
  2.1539801e-01
  5.6411803e-01
 -5.3357798e-01
 -2.1089156e-01
 -3.8278839e-01
 -1.2566392e-01
  1.8113928e-02
  3.7206429e-01
 -4.7081146e-01
 -7.2970749e-03
 -2.0060704e+00
 -2.4168849e+00
 -4.0168565e-02
  9.6139990e-02
 -6.0685206e-02
 -6.6997297e-02
  3.9837712e-01
  8.2484320e-02
  3.7844184e-01
 -2.3218001e-01
 -5.0274926e-01
 -7.8597826e-01
 -3.8068628e-01
 -1.9689276e+00
 -1.0287265e+00
 -1.7876777e-01
  2.4373986e-01
 -1.4405504e-01
 -6.2383790e-02
 -4.0449435e-01
 -2.0908046e-01
 -6.7283028e-01
 -5.0529855e-01
 -7.2220095e-02
 -4.5159346e-01
  7.1702307e-01
 -7.0052937e-02
  5.1249963e-01
 -7.8984243e-01
 -1.4635435e-01
  1.2782814e-01
 -3.3751446e-01
 -1.9071236e-01
 -1.0980749e-01
  1.2873113e-01
  8.2697225e-01
 -9.0516120e-01
  5.9185017e-02
 -1.5196449e-01
 -1.4669767e-01
  1.0906173e-01
  4.8469564e-01
 -6.3134223e-01
 -6.8088450e-02
 -1.3738431e-01
  2.2477280e-01
  7.9551238e-01
 -3.6384007e-01
  2.6317477e-01
 -3.0404723e-01
 -5.4477078e-01
  7.4600808e-02
 -2.5712891e-02
  1.8093847e-01
  9.0181452e-01
  7.5140961e-02
 -1.1887812e-01
 -3.7483212e-01
  6.5619516e-01
 -3.2104895e-01
 -8.6418018e-02
 -9.7060911e-02
  1.6446877e-01
 -4.4047013e-01
  1.2165695e-01
 -5.7748652e-01
 -1.0396346e-01
  1.2167255e-01
  3.3774844e-01
  4.9405152e-01
 -7.5186777e-01
  1.7035605e+00
 -6.2293909e-02
 -5.1021643e-02
  7.3787957e-01
 -3.1220886e-01
 -3.9324564e-01
  4.4146872e-01
  1.5265608e+00
  1.7399366e+00
  7.3858535e-01
  1.2455762e-01
 -1.5717307e-01
 -8.8401622e-01
 -1.0569838e+00
 -1.9462934e+00
  1.3701817e+00
  3.0178976e-01
  6.4134359e-01
  1.1321773e-01
 -5.7213587e-01
 -1.9075075e-01
  3.0445179e-01
  8.6211853e-02
 -2.5424749e-01
 -3.2760052e-03
  9.9938869e-02
 -6.9710094e-01
  2.1174401e-01
  7.1101391e-01
  8.2544905e-01
 -5.6711674e-01
 -4.5324987e-01
 -3.4750514e-02
  3.4125626e-02
 -6.4207447e-01
  1.2120582e-01
 -3.0748630e-01
  3.3475223e-01
 -1.7868339e+00
 -1.2637965e-01
  1.3606295e-01
  6.3920939e-01
 -5.1546252e-01
  1.7332116e-02
 -1.4802115e-01
  3.2741156e-01
  7.7950716e-01
  5.5491602e-01
 -1.0326391e-01
  1.1524556e-01
 -1.0151006e-01
 -6.1657524e-01
  7.2818029e-01
 -4.8077241e-01
  2.8290823e-01
 -6.7463869e-01
  5.1163799e-01
  2.1444201e-01
 -8.0868995e-01
 -4.2782675e-02
  6.5669751e-01
  4.9278873e-01
  7.6946443e-01
 -7.1158677e-01
  5.4571426e-01
  9.2080808e-01
 -1.4212521e+00
 -1.5976571e+00
  2.3114712e+00
 -2.1595410e-01
  2.1933410e-01
  1.4064856e-03
 -3.0747758e-02
 -1.0461003e+00
  3.8295570e-01
 -2.5066182e-01
 -1.0696611e+00
 -1.7200556e-01
  6.1172599e-01
  4.2735985e-01
  4.6265069e-02
  5.3904861e-01
 -3.5601857e-01
 -1.2458346e-02
  1.2253636e-01
  4.6452975e-01
 -1.3609521e+00
 -6.5072674e-01
  2.7809727e-01
 -5.8765123e-03
 -4.0693438e-01
  2.5102699e-01
 -6.5276340e-02
  1.1489245e-01
  1.7159706e-01
  8.5344560e-02
 -1.1396083e-02
 -3.1722795e-02
  4.4476911e-01
  3.6175358e-01
  1.6943663e-01
 -4.8000181e-01
 -3.6461249e-02
  7.1474589e-02
 -6.6615187e-02
  6.2164366e-01
  7.5024062e-01
 -2.6436102e-01
  1.5065616e-01
 -4.4682737e-02
  1.2320651e-01
  2.9403249e-02
  2.6963973e-01
  1.6382204e-02
 -1.1767775e-01
  2.9550038e-02
 -1.3186532e-01
  1.1314937e-01
 -4.3580246e-01
  3.3875838e-01
 -6.7348391e-01
  3.5458434e-02
 -4.9291229e-01
 -3.7802124e-01
  1.6534847e-01
  1.3653342e-01
  6.5235841e-01
 -1.0577961e+00
 -5.4336376e-03
  1.7810777e-01
  3.7121573e-01
  3.4550902e-01
  2.0449111e-01
 -2.5272104e-01
 -2.4570087e-02
 -3.9335307e-01
 -1.3770421e-01
  2.1592653e-01
  6.4043713e-01
  1.8127377e-01
  1.6680194e-01
  1.6434702e-01
  1.9783536e-01
  1.8871062e-01
  6.3461679e-01
  3.7472855e-02
 -3.7972145e-02
  3.4173220e-01
 -5.7418126e-01
 -7.2629857e-01
  1.9912596e-01
 -1.0090858e+00
 -2.2545716e-01
  9.6509433e-01
  3.5917997e-01
  2.4746282e-02
  5.9918624e-01
  4.7687954e-01
  1.0148685e+00
 -1.4262246e-01
 -4.6565652e-01
  5.5484779e-02
 -4.0604919e-01
  1.6458307e-01
  1.5257277e-01
  1.8620223e-01
 -2.4921075e-01
  7.9301578e-01
 -1.5309258e+00
  9.5973635e-01
 -1.7196039e+00
 -1.3052520e-01
  1.7479795e-01
 -3.0230256e-02
  6.3861543e-01
 -4.8458737e-01
  1.2958343e+00
  2.8219888e-01
 -6.0506254e-02
 -3.5706860e-01
 -1.5542847e-01
 -1.2808067e+00
 -2.0676821e-01
 -7.6315749e-01
 -1.1285897e-01
 -6.5912980e-01
 -4.3411070e-01
  2.6740959e-01
  2.2829370e-01
 -8.7362319e-01
  3.6182305e-01
  2.8639653e-01
 -1.6028508e+00
  3.6451590e-01
  4.1717455e-01
 -2.6003817e-01
  2.9772437e-01
 -8.1425232e-01
  5.0091380e-01
 -3.3628055e-01
 -5.0020730e-01
 -1.8984760e-01
  7.9239851e-01
 -4.4345352e-01
  2.9577026e-01
  5.5284280e-01
 -3.9224437e-01
  5.7356620e-01
 -4.2396910e-02
  7.1284771e-02
 -3.9909101e-01
  2.6457125e-01
  3.8148680e-01
  1.3750292e-01
 -6.3202316e-01
  1.0662965e+00
  3.3627352e-01
  1.0832053e-01
  1.5648989e-01
 -6.2595181e-02
  6.8536610e-04
  5.9243000e-01
 -2.7286789e-01
 -3.0125421e-01
  3.8639751e-01
 -3.3987066e-01
 -3.1107172e-01
 -1.3176227e-01
 -1.5408716e-01
 -3.7329596e-01
 -8.8650393e-01
  7.3963225e-01
  8.5356337e-01
 -6.0383284e-01
  9.4539806e-02
 -1.8909520e-02
 -3.9826420e-01
 -1.6328761e-01
 -1.3570345e-02
 -8.4914631e-01
  2.8472671e-01
 -9.1776244e-02
 -1.4402364e-01
  5.7328784e-01
  1.2744690e-01
  8.2875781e-02
 -3.9889049e-02
  4.8311466e-01
 -2.8641105e-01
 -2.4572045e-01
 -4.2954904e-01
 -3.1596565e-01
 -8.1004649e-01
 -1.0475974e+00
 -2.1932743e-01
  2.9430908e-01
 -8.8276643e-01
 -9.2639834e-01
  2.6045716e-01
  6.2404927e-02
 -3.5344118e-01
 -2.3125403e-02
  3.6002249e-01
 -4.5964739e-01
 -1.2008918e-01
  7.4890786e-01
 -6.6218030e-01
  1.0026672e+00
  7.3043519e-01
  3.4412923e-01
  7.6781994e-01
 -8.8415416e-03
 -5.9335124e-01
  4.0157127e-01
  1.0857650e-01
  3.2872078e-01
  1.3451952e-01
  8.2734388e-01
  4.3331337e-01
  6.2470007e-01
  1.0851390e+00
 -5.0839979e-02
  1.8486995e-01
  3.0019724e-01
 -1.0424799e+00
 -8.1532609e-01
  1.4488580e+00
  1.4987814e+00
 -9.7843957e-01
 -2.4425384e-01
  2.6518774e-01
 -2.8018389e-02
 -3.4781298e-01
  5.4692689e-02
 -3.7246299e-01
  1.4072476e-01
  1.6366656e+00
 -2.2219597e-01
 -2.5872019e-01
 -8.6779916e-01
  5.1865900e-01
 -4.7313902e-01
  6.2072396e-01
  1.3027017e-01
  2.3680523e-02
 -2.9930523e-01
  9.3720585e-02
 -1.6822438e-01
  4.7150475e-01
  5.3617841e-01
 -1.5228860e-01
  5.4927248e-01
 -2.2130767e-01
 -4.4592625e-01
 -1.2275983e-01
 -1.7441527e+00
  1.8795992e-01
 -1.0757161e-01
 -1.7196909e+00
 -7.4894629e-02
  3.9300967e-02
 -1.6576422e+00
 -2.0704025e-01
 -1.2139679e-01
  4.0316656e-01
 -4.5164740e-01
  1.9845112e-01
 -2.5585733e-02
  1.8618843e-01
 -6.6022760e-01
 -1.3007917e-01
 -1.7685847e-01
  3.0547166e-01
 -2.1158096e-01
  1.7627087e-01
  4.3245721e-01
  4.2062059e-01
 -3.8576004e-01
 -1.4718498e+00
 -1.6467869e-02
  2.2338399e-01
  3.4840336e-01
 -4.9265212e-01
  2.2008812e-01
  6.7248988e-01
  2.2040468e-02
  3.2984808e-02
 -1.1366381e-01
 -2.4220021e-01
  3.5159451e-01
 -3.3251783e-01
 -2.2007850e-01
  1.9543229e-01
 -2.7785319e-01
  1.0024473e-01
  7.9108082e-02
 -8.1628054e-01
  4.6850201e-02
 -2.1758628e-01
  2.3547370e-02
  2.2951515e-01
 -1.7854189e+00
 -1.3533283e+00
 -2.4283133e-01
 -7.3983902e-01
 -1.6687755e-01
 -3.0179304e-01
  2.7532509e-01
 -3.8656085e-03
  8.2560223e-01
 -1.5318514e-01
 -2.5267944e-01
 -8.1815690e-01
 -1.5031961e-01
  1.3900249e-01
 -7.2475964e-01
  1.8256445e-01
  2.5098613e-03
 -1.6016273e-01
 -1.6882920e-01
  1.9789009e-01
 -1.2644459e-02
 -7.4269171e-03
  4.0176529e-01
 -1.3152697e+00
  3.3695292e-01
  4.5394912e-01
  1.2259452e+00
  1.7684026e-01
 -6.4347798e-01
 -1.4801864e-01
  1.4743264e-01
 -2.8146097e-01
  6.2902860e-02
  2.1417649e-01
 -2.7932191e-01
 -3.3285889e-01
 -6.3987714e-01
 -3.8341588e-01
  2.4881549e-01
 -7.5922728e-02
 -2.8456876e-01
  1.5565783e-01
  1.3306701e+00
  1.4450437e-01
 -3.7755930e-01
  1.3404070e+00
  1.4668842e-01
 -1.0643214e+00
 -2.1108592e-01
  1.3043171e-01
 -3.4066212e-01
  3.1889281e-01
 -5.9335351e-01
 -3.5836345e-01
 -8.4672630e-02
  1.1670430e+00
 -9.0940297e-01
 -6.4369851e-01
 -1.7391981e+00
  1.5044035e-01
 -2.6528305e-01
  6.1944034e-02
 -1.6129670e+00
 -4.5903433e-02
  4.6688437e-01
 -8.7675112e-01
  5.9515625e-02
 -2.7097490e-01
 -9.2405051e-01
 -1.4059464e+00
 -3.5688573e-01
 -7.8979802e-01
 -5.6699365e-01
  2.8177289e-02
  6.2235796e-01
  9.2566514e-01
  1.8985779e+00
 -5.9757847e-02
  1.0877955e-01
 -8.8045877e-01
  5.1564705e-01
 -1.0641876e+00
  1.3403175e+00
 -7.5071089e-02
  1.5908064e+00
  1.7897832e+00
  2.2895965e-01
 -3.7093410e-01
 -1.0745291e+00
  4.8520058e-02
  5.1884454e-01
 -2.6883498e-01
 -1.5397356e-01
 -1.8541557e-01
  2.3678535e-01
  4.8862748e-02
  6.6967952e-01
 -6.7562640e-01
  8.1363606e-01
 -4.2170712e-01
  9.2465252e-02
 -2.5769396e-02
 -1.6129139e-01
  1.2695371e-01
 -8.3418250e-01
 -8.8329768e-01
  4.4225313e-02
 -5.6839579e-01
  6.9752640e-01
  1.9434354e+00
 -1.6103762e-01
 -2.9208368e-02
  6.9797659e-01
 -1.6273865e+00
  4.5947212e-01
  3.5893369e+00
  1.2499112e+00
 -8.3506131e-01
  1.6486031e-01
  7.0256501e-01
 -4.6388403e-01
 -1.0446069e+00
  6.5618175e-01
  2.9000599e+00
 -1.4681467e+00
 -4.4295064e-01
  3.4885776e+00
  5.8840957e-02
 -1.4833775e+00
 -7.3779863e-01
 -1.9129205e-01
  5.9434593e-01
  3.6754549e-01
 -1.1718937e+00
 -1.6833031e+00
  6.3906938e-01
 -5.6068994e-02
 -7.2569841e-01
 -7.0837134e-01
 -2.9399446e-01
 -5.3992772e-01
  1.2220413e-01
  1.1563445e+00
 -2.3124804e-01
  8.4740710e-01
  4.5376930e-01
 -2.2172437e+00
 -8.5600503e-02
 -5.2445328e-01
  4.4981968e-02
 -3.2403237e-01
  3.8262796e-01
  5.8567899e-01
  3.1836417e-01
 -3.4261951e-01
 -4.9770570e-01
 -6.3980258e-01
 -5.3788852e-02
 -6.8568212e-01
 -9.0439600e-01
  2.7321774e-01
  3.6726665e-01
  3.6265272e-01
 -3.4603584e-01
 -9.7784722e-01
  4.7182846e-01
  2.2800395e-02
  2.3008575e-01
  4.7552544e-01
  2.4183941e-01
 -1.0249204e-01
  2.2716096e-01
  2.2594084e-01
 -3.1519488e-02
  2.4883008e-01
 -2.9105976e-01
  3.4432450e-01
  1.3300310e-01
 -2.9277772e-01
 -3.7778851e-02
  2.4065515e-02
 -9.5734149e-01
  9.9567020e-01
 -4.3231755e-01
  3.5839090e-01
  5.3966153e-01
 -6.9646466e-01
 -9.9484110e-01
 -3.2903168e-01
  2.3053958e-01
  1.8717328e-01
  1.2932599e-01
  1.6380632e+00
  1.7986727e-01
  2.9004058e-01
 -1.0094432e-01
 -1.8362184e-01
  1.7977809e+00
  5.5737633e-01
  2.9631326e-01
  6.3488239e-01
 -6.7337587e-02
 -3.9118129e-01
 -3.1718865e-01
  3.0719110e-01
  1.3889864e-01
  2.6712319e-01
 -6.0683644e-01
  5.6593913e-01
  3.3013288e-02
  5.5474001e-01
  7.8730983e-01
  1.8630813e-01
 -4.8196408e-01
 -9.3269295e-01
 -6.7974120e-01
 -2.3402035e+00
  4.2385519e-01
  9.4390619e-01
  7.3490798e-01
  1.0036249e+00
 -4.4143257e-01
 -2.0583811e-01
 -1.4898822e+00
  2.5044968e+00
  1.1498486e+00
 -6.8394649e-01
  2.0324743e+00
  3.4943026e-01
  4.4611987e-02
  6.7378145e-01
  7.4756563e-01
  8.6931676e-01
  8.2458758e-01
 -4.1993666e-01
 -2.9472259e-01
 -1.8546700e-02
  2.6243236e+00
 -3.1561360e-01
 -8.9547157e-01
  7.5248533e-01
 -5.4058331e-01
 -5.4555678e-01
 -1.2476586e+00
  7.1576107e-01
 -3.2011554e-01
 -2.5581148e-01
  1.2789191e+00
 -7.3363465e-01
  4.0699032e-01
 -3.9765570e-01
  3.4523568e-01
 -1.1708580e+00
  9.5634741e-01
  5.2661002e-01
  1.3414811e+00
  4.1930448e-02
 -1.4022499e+00
  4.6093515e-01
  2.5488532e-01
 -1.6206348e-01
  1.0528703e+00
 -3.8873263e-02
 -4.2079797e-01
 -6.0173976e-03
 -3.6593738e-01
 -6.1106110e-01
  6.6068923e-01
 -1.9363603e-01
  9.9906343e-01
 -2.1670377e-01
 -1.6832879e-01
  1.6299768e-01
 -1.6950641e-02
  9.4956689e-02
 -4.4158715e-01
 -3.9688662e-01
 -1.0942217e-01
 -4.9791247e-01
 -1.4390473e-01
  2.8557903e-01
  8.5606557e-01
  2.3465298e-02
  1.1911663e-02
  1.0882825e+00
  1.7640814e+00
 -5.9285682e-01
 -5.6404871e-01
  9.8899879e-02
  8.6763823e-01
  9.6479997e-02
  1.1914407e-01
  1.4548666e+00
  5.2041852e-01
  3.7606615e-01
  4.3466803e-02
  2.4276014e-01
 -6.2896148e-03
 -5.0789857e-01
 -7.7797627e-01
 -1.9140056e-01
 -1.3194115e-01
 -1.3254306e-01
 -3.3293074e-01
 -7.4029517e-01
  5.7364124e-01
  3.4281392e-02
  6.1872488e-01
 -2.0564677e-01
 -9.6698159e-01
 -1.1054152e+00
  7.7718008e-01
 -6.7456931e-01
 -5.7504892e-01
 -1.1158242e+00
 -3.2599124e-01
  3.2255020e-02
  3.4279293e-01
  7.2591673e-03
 -8.6587179e-01
 -4.8249152e-01
  6.2191856e-01
 -8.9746886e-01
 -3.4782183e-01
  2.8813308e-01
  3.3500567e-01
 -5.1409628e-02
  9.6677238e-01
  1.2424465e+00
  9.8834193e-01
  3.8652688e-01
  1.5502055e-01
 -2.8900403e-01
  2.9277316e-01
  1.5094210e-01
  1.7182730e-01
  8.6948872e-01
  3.1054795e-01
  5.1789838e-01
 -2.4157929e+00
 -1.2156747e-01
 -8.2086498e-01
 -3.3497608e-01
 -2.8943628e-01
 -6.3268401e-02
  5.6455624e-01
  4.1699156e-01
 -1.0376644e-01
 -2.8965402e-01
 -7.1311426e-01
  6.6231287e-01
  8.0504346e-01
 -5.9322972e-02
  1.3832599e-01
 -1.8411866e-01
  1.4995077e+00
 -2.8757206e-01
 -8.6891037e-01
 -8.7704575e-01
 -1.3388111e-01
  2.4766953e+00
  9.1343015e-01
 -1.9157407e+00
  5.3239930e-01
 -5.2991182e-01
 -8.5599339e-01
  6.7243667e-04
 -3.0055776e-01
  9.3342371e-02
  1.0187275e-01
 -1.0090140e-01
 -2.1467999e-01
 -5.0637588e-02
 -2.6481041e-01
  3.7249640e-01
 -8.4673208e-01
 -2.5278962e-01
  3.1050755e-02
  2.7764326e-01
  2.1436076e+00
  2.2168393e-01
 -2.6277017e-02
 -2.0071158e+00
 -2.7945401e-02
  4.1846100e-02
 -2.9571015e-01
  2.3280798e-01
 -3.5043979e-01
 -2.0845161e-01
  3.4479210e-01
 -1.9828022e-01
  2.0291814e-01
 -4.0687257e-01
  3.4881863e-01
 -9.7322792e-02
 -1.5780814e+00
  1.9334103e-01
  4.5764568e-01
  5.8690287e-02
  8.4210134e-01
  4.1703337e-01
 -1.4762280e+00
  7.5553226e-01
  3.0948016e-01
  4.3574315e-01
 -1.7277991e+00
  1.4870161e-02
 -6.0601225e-03
 -1.7504239e-01
 -2.5867881e-02
  2.6550350e-01
 -2.4055849e-01
  1.0484897e-01
 -6.2812674e-01
  5.2344429e-01
 -2.3289290e-01
  1.1781150e+00
  5.0616402e-02
  2.8479302e-01
 -2.3197493e-01
  1.6728948e-01
 -5.9080595e-01
  3.6277071e-01
  1.2463225e-01
  2.7460659e-01
 -1.2765990e+00
  9.3508220e-01
 -1.9092685e-02
  4.9719915e-01
 -1.4072686e+00
 -1.7243514e+00
 -4.2675984e-01
 -1.2546231e+00
  3.7530693e-01
  2.2648741e-01
 -3.4399197e-02
  8.6291581e-01
 -9.9094525e-02
 -5.5991954e-01
  7.2436795e-02
  2.2829838e+00
 -5.9040296e-01
 -7.5827278e-02
  4.6216762e-01
 -6.9020405e-02
 -1.9634849e+00
 -7.6988024e-01
  6.0187680e-01
 -4.4442469e-01
  9.4321293e-01
  8.3860773e-01
  5.9258926e-01
 -4.0024579e-01
  1.3015714e+00
 -5.5221051e-01
  4.3363893e-01
  8.1087726e-01
 -2.6648942e-01
  2.3757324e+00
  2.1233910e-01
 -6.9004901e-02
 -7.1197772e-01
  1.6233052e+00
  1.1603457e+00
  1.0334840e+00
  1.2725917e-01
 -1.8808439e+00
  2.9950775e-02
  1.5906419e-01
 -2.3422615e-01
 -2.9524237e-02
 -1.3074362e-01
 -5.4215515e-01
 -4.4886506e-01
  3.2195073e-01
  5.5602193e-01
 -3.1560513e-01
  1.5715131e-01
  3.7508103e-01
 -9.5618740e-02
 -2.9126808e-01
 -4.8470923e-01
 -1.6997667e-01
  1.1306654e-01
  9.7030565e-02
 -3.3743650e-01
 -3.4503296e-01
  1.3311261e-01
 -5.4640543e-01
  8.3563045e-02
  6.2119013e-01
  8.2387319e-03
 -1.9803721e-01
  9.1772780e-02
  1.8589886e-01
 -1.5093696e-01
 -6.0994172e-01
 -9.7147815e-02
 -5.9204355e-02
  5.1926840e-02
 -5.0802317e-02
  1.6302145e-01
  2.8924450e-01
  3.9560109e-01
 -1.1388307e+00
 -1.0810446e-02
  2.3196748e-01
 -5.1807806e-02
 -3.2580441e-01
 -2.8453454e-01
 -1.3707009e-01
  5.8959502e-01
 -5.8710361e-01
 -5.1583380e-01
 -4.0704474e-02
 -4.7288880e-02
  7.1469617e-01
  3.4465441e-01
  9.9698924e-02
 -5.1540428e-01
  1.8529054e+00
  1.5143733e+00
 -2.1717658e-03
  3.6481348e-01
  4.2575750e-02
 -9.2195916e-01
  1.4509650e-01
  4.3118837e-01
  2.5105292e-01
  2.8240585e-01
 -6.0874444e-01
 -4.4673231e-01
 -1.1864772e-01
  5.0383776e-01
 -1.0738597e+00
 -1.3341293e-01
  1.4107224e-01
  2.9815924e-01
  1.0547560e+00
  1.6500511e+00
  5.5664916e-02
 -1.7684746e-01
 -5.4666573e-01
  2.3984027e-01
  4.3618903e-02
  8.0162662e-01
 -1.3037361e+00
 -1.6437486e-01
 -8.9811969e-01
 -8.4976703e-01
 -2.3335759e-02
  6.9915038e-01
  4.8680373e-02
  2.4723899e-01
  2.4590236e-01
 -3.5187605e-01
 -1.2441151e-01
 -6.4362252e-01
 -2.7227446e-01
  6.0137909e-02
 -2.9206680e-02
 -1.5044647e-01
  7.2401482e-01
  5.9585255e-01
 -5.4587686e-01
 -7.7950925e-01
  1.3568535e+00
 -3.7016124e-01
  1.1844121e+00
  7.9779647e-02
 -2.8719953e-01
 -7.2990090e-01
  2.8804609e-01
 -2.0437694e-01
  1.6911176e-01
 -4.4327959e-01
  3.7878969e-01
  2.8855431e-01
  6.0068381e-01
  1.3944972e-01
 -2.3663568e+00
 -7.7429891e-01
 -5.8439124e-01
  1.9090705e-01
 -4.3055701e-01
 -4.3648858e-02
 -6.7032635e-01
  2.0125177e-02
  4.3754768e-01
 -2.0923671e-01
  4.5011052e-01
  3.1797326e-01
  2.6856594e-02
 -9.2789143e-02
  4.0926270e-02
 -1.2004126e+00
 -8.5541531e-03
 -3.1009110e-02
 -5.4252011e-01
 -4.4050547e-01
  8.3082849e-01
 -2.6691732e-01
  8.8801354e-01
  1.0248845e-02
 -1.0347804e-01
 -1.8813318e-01
 -7.4939543e-01
  1.0364413e+00
  5.6060863e-01
  2.7333859e-01
 -4.2785078e-02
 -1.2051722e-01
 -7.1925007e-02
 -1.9525751e-01
 -6.9026095e-01
  2.6657164e-01
  2.1210141e-01
 -7.1879774e-01
 -4.5063656e-02
  8.2370028e-02
 -4.1687647e-01
  6.7598438e-01
 -6.4300525e-01
  7.8210689e-02
 -2.1586168e-01
 -3.4788679e-02
 -1.3646369e+00
  5.8728206e-01
 -1.7825505e-01
 -1.6703461e-01
  2.2781497e-01
 -2.8642061e-01
  2.3820240e-02
  5.9956931e-02
 -1.8596484e-01
 -1.6269515e-01
 -1.3802840e-01
  7.2426289e-01
  5.9748031e-02
  2.8340933e-01
  1.0417139e-01
 -3.3672345e-01
 -1.2544925e+00
 -8.7796316e-02
  1.4262705e-02
 -4.3180290e-01
 -3.0584254e+00
  1.9762130e-01
 -1.0107183e+00
 -5.0230569e-01
 -2.4362577e-01
  4.8583582e-01
  1.6093674e-01
 -4.7628637e-02
  2.5468898e-01
  8.3153695e-01
  6.4878747e-02
  5.7043977e-02
  1.8679863e-01
  7.2991997e-01
 -2.5205024e-02
 -3.2801587e-02
 -6.3522464e-01
  7.1887392e-01
  1.7454636e-01
 -5.5772960e-03
 -1.0364114e+00
 -2.7718353e-01
  1.1211051e-01
 -8.0191517e-01
  9.5343709e-02
 -1.5729861e-01
  6.8201721e-01
 -1.0894556e-01
  5.5685592e-01
 -1.9494396e-01
  7.3141947e-02
 -1.5068305e-01
  4.9855360e-01
 -1.1609699e-02
  4.7087145e-01
  4.5714030e-01
  1.6234951e-01
  5.7846057e-01
  2.5226076e+00
 -1.1488499e-01
  1.9360305e-01
  5.4454607e-01
 -1.2613954e-01
 -9.1851287e-02
  2.3146479e-01
  1.0833589e-01
 -2.9648221e-01
  4.1374654e-01
 -1.1135978e-01
  7.1026736e-01
  2.0741954e-01
  2.0131879e-01
 -9.9093191e-02
 -1.1382051e+00
 -6.9558865e-01
 -6.1731422e-01
 -1.0904454e+00
 -1.7052776e-01
 -1.3271483e+00
  4.3430546e-01
 -9.9664107e-02
  1.2224972e+00
  1.4661700e+00
  1.1158746e+00
  1.0565962e+00
  7.1838981e-01
 -5.0086045e-01
 -1.6545269e+00
 -9.3948692e-01
 -9.4758302e-02
 -1.6040459e-01
  1.4440131e+00
  7.8093714e-01
  6.7132246e-01
 -5.6997007e-01
  1.8768793e-01
 -8.3453685e-01
 -7.9081136e-01
  3.7514772e-02
  9.1109622e-01
  8.0749917e-01
 -6.5485549e-01
 -6.6675409e-03
 -1.2293255e+00
  1.3796132e+00
 -5.8741190e-02
 -1.6427284e+00
  2.0531487e+00
 -7.5531684e-02
  1.7538829e+00
 -1.7881085e+00
  4.7104666e-01
 -6.2762028e-01
 -6.4151615e-01
 -1.1989733e+00
  9.7327828e-01
 -4.9675459e-01
  7.8309858e-01
  3.5797033e-02
  4.0421626e-01
  2.8688952e-01
  1.2128854e-01
 -6.3022763e-01
 -1.9754069e-01
  5.4474801e-02
  9.9518281e-01
 -4.1837648e-02
 -1.0641603e+00
 -6.4230192e-01
 -1.7437246e-01
  1.1890523e+00
 -1.1797110e+00
 -3.3909547e-01
 -1.2558572e+00
  5.3887182e-01
 -3.0704181e+00
  3.0798894e-01
  8.2826710e-01
  9.8739678e-01
 -7.1949832e-02
 -6.1172956e-01
 -4.5056349e-01
  8.5670167e-01
 -2.9035491e-01
 -1.3271456e+00
  1.3516769e-01
  3.0846648e-02
  1.0598304e+00
  4.8606002e-01
 -8.7778959e-03
 -1.6911687e-01
  6.1294012e-02
 -6.7766768e-01
  1.3372140e+00
 -4.9816422e-02
 -3.8873181e+00
 -7.3508483e-01
  2.5745473e+00
 -1.8116841e+00
 -6.0254477e-02
 -1.4240388e+00
  6.4627126e-02
 -1.9174203e-02
 -1.3073971e+00
  7.5633883e-01
 -1.8463118e-01
 -5.2995598e-01
  4.2016938e-02
 -8.4139816e-02
 -1.2849704e+00
  5.0114655e-01
  2.0001819e+00
  1.5304807e-02
 -2.8356770e-02
  5.2584317e-02
  7.4717224e-02
  2.9938027e-01
 -1.3506743e-01
 -3.0868921e-02
 -3.0002409e-01
 -1.9477849e-01
 -8.8567220e-02
  1.4419867e-01
 -5.2999699e-01
  8.3109504e-01
  4.6440494e-01
  1.7062059e-01
  9.9188167e-01
 -9.1753119e-01
 -9.7644947e-02
 -8.0169725e-01
 -6.5519667e-01
  6.6592526e-01
  1.1896869e+00
  3.9702848e-01
 -2.7999961e-01
 -6.8233103e-01
 -9.6693975e-01
 -1.4899921e+00
 -4.2591017e-01
  5.8842248e-01
 -8.6508143e-01
  1.1600908e+00
  1.4634961e+00
 -1.2693952e-01
  9.7754765e-01
  1.5338072e-02
 -7.8079683e-01
  6.5584159e-01
  1.7968024e+00
  1.5479480e-01
 -1.5069118e+00
  3.7493587e-01
  1.3830652e+00
  2.4241552e-01
 -5.7190543e-01
 -1.2385014e+00
  4.6868390e-01
 -4.0057674e-01
 -2.1854010e+00
  3.4664088e-01
  6.0122448e-01
 -3.2129952e-01
 -1.0282829e+00
  4.4229600e-01
 -1.4652733e+00
  4.5742631e-01
  6.6761732e-01
 -4.9471715e-01
 -2.0485659e-01
 -8.8805938e-01
 -1.0376401e-02
  1.6835911e+00
  4.3631712e-01
 -6.5715605e-01
  1.0978192e+00
 -5.5201423e-01
  2.0395787e+00
 -1.8172649e-01
 -1.6944203e+00
 -2.1950555e+00
  3.9106938e-01
  1.0181053e+00
 -1.9634404e+00
  6.5316886e-01
 -1.0078744e+00
  1.1099384e+00
  1.1066425e+00
  2.2317095e-01
  4.1756842e-01
 -4.1324484e-01
  6.9508243e-01
 -3.1984844e+00
 -1.7843474e+00
  4.2996459e-02
 -8.2033736e-01
 -4.3878415e-01
 -5.5815126e-03
 -6.5348037e-02
  6.9639683e-01
  8.1054831e-01
  1.4702978e+00
 -6.2406850e-01
 -2.2074220e+00
  7.5140613e-01
  4.6185741e-01
  7.1979189e-01
 -1.7763374e+00
  2.2575061e+00
  1.2435325e+00
  1.9005475e+00
 -7.4539965e-01
 -7.2266412e-01
 -1.1770772e+00
  2.4347224e+00
  2.2181251e+00
 -1.7451462e+00
 -3.8215011e-02
  5.7337350e-01
  2.0881436e+00
  8.7123770e-01
  1.7558661e+00
  7.4225134e-01
  3.0729829e-04
  1.0493472e-01
 -2.2798744e-01
  1.4454225e+00
  4.0535697e-01
 -1.8607332e-01
  1.4179726e+00
 -1.0997735e+00
 -2.0747089e-01
 -4.6601090e-01
  2.1907568e-01
 -3.2594863e-01
 -7.9585129e-01
 -9.8537892e-01
  7.4652052e-01
 -1.7263709e-01
  7.2347209e-02
 -9.2272751e-02
 -6.6386414e+00
 -9.2291939e-01
  1.1680237e+00
 -5.5765301e-01
 -2.0787869e-01
 -1.1312891e+00
  1.1434358e-01
 -1.9271574e+00
 -4.3359581e-01
 -2.5255837e+00
 -6.5157473e-01
 -3.5443240e-01
  2.8935943e+00
 -3.5152149e-01
 -2.3302434e-01
  5.4929134e-02
 -2.2352847e-01
  1.3673854e+00
 -2.7643211e+00
 -2.7435970e-01
  5.7035904e-02
 -6.9119811e-01
 -9.4562650e-01
  3.5131946e-01
  1.3260976e+00
  1.4302905e-01
  9.2134483e-02
  7.2060430e-01
 -3.9533159e-01
 -1.8750195e-01
 -6.7446744e-01
  1.4337996e-01
 -8.1291699e-01
  1.3658996e-01
  1.8724797e+00
  8.7694228e-01
  5.5935317e-01
 -1.3393500e+00
  1.1541697e+00
  1.2998271e-01
 -2.4745159e+00
  2.4914132e-01
  6.0095066e-01
  5.9766698e-01
  2.2301270e-01
  8.4712607e-01
 -3.1797138e-01
  2.6625967e-01
 -6.1566997e-01
  4.3200788e+00
 -2.9335773e-01
  1.9238496e+00
 -2.7576533e-01
  6.3279361e-02
  7.1742940e-01
  9.2254281e-01
 -1.4888437e+00
 -1.1467667e+00
  1.1639528e+00
 -8.9776665e-01
  5.5026680e-01
  1.1478520e-01
 -8.0695689e-02
 -6.6200219e-02
 -2.0251858e-01
 -6.9552875e-01
  1.9557256e+00
  5.4712141e-01
  1.4301863e-01
 -2.2074905e-01
 -8.0576134e-01
 -3.0280838e-02
  1.1058420e+00
 -2.4908780e-01
 -1.4273170e-01
  2.6041439e-01
 -8.1755042e-01
 -5.0980848e-01
 -1.1435339e+00
  3.1537890e-01
 -8.1678021e-01
  7.6405697e-02
  2.6923054e-01
  3.2744434e-01
  5.4300636e-01
 -1.3658394e-01
  7.4742788e-01
  2.2783713e-01
 -4.3704158e-01
 -4.2676321e-01
  5.3140068e-01
  3.2979512e-01
  3.4648016e-01
  7.3454583e-01
  3.0247000e-01
 -4.6309073e-02
 -3.1180054e-01
 -2.3481394e-01
 -5.0165129e-01
 -8.8751602e-01
 -1.0499463e+00
 -1.9731291e-02
 -1.0583506e-02
  2.8020844e-01
  7.7013195e-01
  9.8151988e-01
  7.2229832e-01
  8.5297011e-02
  5.0095085e-02
  4.4053173e-01
  5.7168055e-01
 -6.3393407e-02
 -6.2119806e-01
  1.2846351e-01
  5.3902015e-02
 -3.0925909e-01
  7.0703870e-01
  1.3373216e+00
 -2.2056672e-01
  3.3062121e-01
  8.7535959e-01
  1.0193531e-02
 -2.0502074e-01
 -3.0864233e-01
 -3.9461534e-02
  4.3320847e-01
 -4.9573886e-01
 -7.9471189e-01
 -3.9848942e-02
 -2.0707516e-01
 -5.1615600e-02
 -2.1886668e-01
 -6.8395323e-01
  5.1376909e-01
 -3.4401831e-01
  2.3038270e+00
 -1.5779181e-01
 -1.6342422e-01
 -5.1067527e-02
  4.0167335e-01
 -4.7303548e-01
  1.9634025e-01
 -1.0573462e+00
 -2.5984928e-01
  1.5919931e+00
 -2.1044512e-01
 -4.1098842e-01
 -1.2921077e+00
 -4.4482815e-01
  5.0703738e-02
 -2.1928273e-01
  9.4252551e-01
  1.0180881e+00
  2.7308959e-01
  6.4886796e-01
 -2.9753517e-02
  4.5640063e-02
 -3.8562883e-02
 -3.4523040e-02
  3.8919064e-01
  1.4557112e+00
 -3.3332333e-01
  2.6914039e-01
 -3.7229878e-01
 -1.5999401e+00
  1.6928740e-01
  3.8093853e-01
 -4.4604227e-01
  4.9313956e-01
 -7.7377474e-01
  1.0745791e+00
  4.7917925e-02
  5.0472204e-02
  3.6301893e-01
  2.8089541e-01
 -2.5656849e-01
 -2.8189921e-01
  1.0842032e-01
 -8.4436638e-03
 -1.8660358e-01
  9.3722928e-01
  1.0435436e+00
  2.4433418e-01
  2.7576449e+00
  2.1301307e-02
  5.3982437e-02
 -1.9734840e-01
  1.3592917e-01
 -7.2718400e-01
 -3.6076999e-01
  1.4524820e-01
 -4.2735764e-01
 -7.6167874e-02
 -3.9353365e-01
 -1.2011991e+00
  2.2121765e-02
  6.5195382e-01
  4.6752274e-02
  5.8824372e-01
  1.7274822e-01
  6.2314808e-01
 -1.1613487e-01
  9.1006465e-02
  8.4563913e-03
  2.2444509e-01
  7.0128447e-01
 -5.7798463e-01
 -1.6148832e+00
  3.1110424e-01
 -1.1737815e+00
 -3.1092392e-02
 -3.1116159e+00
  2.9696992e-01
 -1.1989380e-01
  4.3728757e-01
 -6.9467336e-02
 -8.2455498e-01
  4.5802829e-01
  1.1676595e+00
 -5.6369072e-01
 -6.9148064e-02
 -9.1500425e-01
 -9.0328291e-02
  2.9637223e-01
  5.4395390e-01
  1.0150139e+00
  5.3189605e-01
  6.8873398e-02
  2.7326345e-01
 -1.3498795e-01
 -9.7965938e-01
 -8.4985197e-02
 -5.3617048e-01
 -3.8562158e-01
  3.9882001e-01
  2.4466309e-01
 -3.5593595e-02
 -5.4933327e-01
  3.5977992e-01
  6.1705482e-01
 -6.3871913e-02
 -7.7028036e-01
  1.0745589e-01
 -2.1288697e-01
  6.4057523e-01
 -1.4469859e-01
 -2.2300586e-01
 -1.1044343e+00
  2.9257113e-01
 -8.1587965e-03
  1.1617936e-01
  6.4281499e-01
  3.2950172e-01
 -1.6357260e+00
 -3.5901961e-01
 -4.9847099e-01
  3.5012892e-01
 -8.3451366e-01
 -4.6935657e-01
 -1.0231546e+00
 -5.5420056e-02
  2.8398421e-01
  1.1106296e+00
  2.9308023e+00
 -4.0472925e-01
 -1.2448852e+00
  2.5530702e-01
 -1.4307774e+00
 -8.4856218e-01
  6.8969530e-01
  5.4547089e-01
  1.8339013e+00
 -1.9148494e-01
 -6.6954233e-02
 -8.8429052e-01
  1.1647462e+00
  2.1059953e-01
  5.3326893e-01
 -4.4636300e-01
  7.4097574e-02
  1.2956672e+00
 -2.5562778e-01
 -3.2955024e-01
 -8.2505971e-01
 -1.4560667e-01
 -4.5754537e-01
  1.8435571e+00
 -9.0774007e-02
  4.7350079e-01
  1.8149655e-01
 -3.9461654e-01
 -5.0129503e-01
 -2.8455558e-01
  4.0163386e-01
 -2.0593290e-01
 -7.9660171e-01
  3.2195336e-01
  4.0056743e-02
 -7.4905467e-01
  1.5456127e-01
  3.2457465e-01
 -3.4080666e-01
  2.2885001e+00
 -3.5305750e-01
 -4.1302887e-01
 -3.5218996e-01
 -8.3684433e-01
  1.8212281e-01
  6.2614644e-01
  7.8109622e-01
 -1.8708941e-01
 -3.3238447e-01
 -3.4698230e-01
  8.8415551e-01
 -8.9604151e-01
  1.5496378e-01
  7.2184318e-01
  2.0720264e-01
  2.9690580e+00
 -9.5823884e-02
 -5.8041006e-01
 -5.6397468e-02
 -3.0408412e-01
 -1.6556507e-01
  3.1642851e-01
  2.6382172e-01
 -1.1031971e-01
  3.6179847e-01
 -2.0525501e+00
  1.0591409e+00
 -1.1529142e+00
  2.8408259e-01
 -9.3999684e-01
 -4.1282800e-01
  5.0876897e-02
  3.0178180e-01
 -5.0053531e-01
 -2.1112218e+00
  3.9549316e-03
 -3.7105235e-01
  5.5345541e-01
 -2.0645605e-01
 -6.7187458e-01
 -4.7429502e-01
  2.9613298e-01
 -9.9868286e-01
 -9.5186031e-01
  2.6805708e-01
 -3.7950420e-01
 -4.1421998e-01
 -9.2492396e-01
  5.7272039e-02
  5.4642898e-01
 -3.9028275e-01
  1.5707354e-01
 -1.6876991e-01
  9.1087711e-01
  9.9984691e-02
 -1.3018848e+00
 -3.5267797e-01
  2.1482430e-01
 -6.9547051e-01
  3.4148511e-01
 -6.3900328e-01
 -5.9211808e-01
 -4.3971604e-01
  6.5010977e-01
 -8.0973828e-01
 -1.7418586e-01
  3.6909401e-01
  3.9974678e-01
  1.4673004e+00
 -5.8912907e-02
  3.6807737e-01
 -6.6672051e-01
  1.8824367e-02
 -2.2215462e-01
 -9.7614996e-02
  5.4075614e-02
  1.7189524e-01
  1.2320236e-01
 -5.1435679e-01
 -1.4615635e+00
 -1.6274607e-01
 -5.3288162e-01
  6.9041364e-02
  2.0075145e-01
 -3.4727097e-01
  5.2846335e-02
 -4.0742984e-01
 -1.7815092e-01
  1.2477458e+00
  9.7103231e-03
 -2.1130989e-01
 -4.8693207e-01
  3.1634378e-01
 -4.3187939e-02
  4.9139476e-01
  1.1442392e+00
  1.1719402e+00
  8.4085000e-01
 -1.1610119e+00
 -9.2363614e-01
  4.7788512e-02
  4.8526359e-01
  2.7030396e-01
 -7.1202624e-01
  1.2249196e+00
 -3.8480937e-01
  1.0996940e-01
 -7.6654738e-01
  2.9075584e-01
 -1.4569287e+00
 -4.2844281e-01
 -1.7513885e+00
  8.7168455e-01
  2.3819391e-01
  2.1308167e+00
 -1.5467782e+00
 -1.3593531e+00
  1.9860549e+00
 -9.0576775e-02
 -2.6318219e-01
 -2.5590849e-01
 -4.7763970e-01
 -2.6216659e-01
 -9.5165062e-01
 -2.8028882e-01
 -8.8839370e-01
  8.7971169e-01
 -2.2156268e-01
  4.4322129e-02
  1.9420666e-01
  1.6212775e-01
 -5.4387480e-01
  2.8941578e-01
  1.1297365e-01
 -5.0145328e-01
  1.3732909e-01
  7.8234500e-01
  4.2231688e-01
  1.5390250e-01
  2.5116619e-01
 -2.8173116e-01
  3.8171810e-01
  4.2596522e-01
  1.0833451e+00
 -1.0484885e+00
  1.0637678e+00
 -1.1032821e+00
 -1.7658287e-01
 -1.3188213e-01
 -5.4482752e-01
 -6.8856406e-01
 -4.5924342e-01
  1.0401595e-01
  3.4484139e-01
  5.7728624e-01
 -1.1703824e+00
  3.6754677e-01
  2.0176291e-01
  1.4005516e-01
  6.1395752e-01
 -3.0090770e-01
  2.3952115e-01
  3.7820436e-02
  4.7891885e-01
  2.6741520e-01
  5.7419652e-01
  7.8095484e-01
 -4.5045870e-03
  1.7707852e+00
 -1.6973735e+00
 -5.7870626e-01
 -9.4664104e-02
  1.0231084e+00
  2.1310829e-01
 -1.1960648e+00
  5.2159585e-02
 -3.0435711e-01
 -3.8879368e-01
  7.9232985e-01
 -1.1324003e-01
  7.5145245e-01
 -1.1356963e+00
  7.5055766e-01
 -2.7259413e-02
 -5.5381745e-02
  2.2547843e-02
  5.7171918e-02
 -1.9800383e-01
  6.4598441e-01
 -1.6288777e-01
 -1.6110982e-01
 -1.0651883e+00
  2.7626351e-01
 -1.1037645e-01
  6.9363132e-02
  4.4811150e-01
  2.0816898e-01
  9.8938775e-01
  1.6600017e-01
 -1.1715432e-02
  2.1948658e-01
 -6.8759608e-01
  3.1482643e-01
 -3.7352234e-01
 -5.5479273e-02
  7.5363956e-02
  1.2196632e-01
 -1.0344150e+00
 -2.6802152e-01
 -4.3638766e-01
  2.8995255e-01
 -1.3471542e-02
 -2.9709145e-01
  8.8129216e-01
  3.0179924e-01
  3.2208939e+00
 -3.2172628e-02
  6.5225035e-02
  4.1028386e-01
  6.8977699e-02
 -4.6206039e-01
 -1.3810716e+00
 -2.2057714e-01
  6.5433776e-01
  1.0042841e+00
  1.3520539e+00
 -7.2855735e-01
  1.3801938e+00
  3.4095198e-01
 -3.3060629e-02
 -5.7977796e-01
 -3.1575048e+00
  1.3704795e+00
  1.0236690e-01
 -7.2165138e-01
  7.5047630e-01
  8.0838728e-01
  8.0876380e-01
 -5.1655537e-01
 -1.1412591e-01
 -1.1025343e+00
  1.3210189e+00
  3.9590161e-02
  6.2270407e-02
 -2.2250600e+00
 -3.9792824e-01
  4.1852671e-01
  1.8138533e+00
  5.5267090e-01
 -5.0121937e-02
  6.7251980e-01
  1.0453981e+00
  6.6263258e-01
  9.8027545e-01
  8.4701264e-01
 -1.5135255e+00
 -3.7244585e-01
 -8.6280331e-02
 -1.4205419e+00
 -2.1028028e-01
 -2.1765130e+00
 -2.1914136e-02
 -8.1318311e-02
  9.9777272e-03
 -2.3108457e-01
  7.8966701e-01
  3.9685279e-02
 -7.8404057e-01
 -2.3320019e-01
 -1.6942611e+00
 -1.1511961e-01
  1.5713278e+00
  1.1833191e-01
 -1.1395812e+00
  6.0427707e-01
  6.1984676e-01
  1.4457816e+00
 -5.0079674e-01
  5.3623241e-01
 -1.0505892e+00
 -1.2914090e-01
  6.2409416e-02
 -2.7655011e-01
  8.1812882e-01
 -3.7067106e-01
  1.4116769e+00
  2.3124101e+00
  7.2047502e-01
  4.9631548e-01
  6.9349438e-01
 -2.8704754e-01
 -1.1753670e+00
 -6.8485898e-01
  6.0858595e-01
  1.1951147e+00
  3.4815884e-01
 -4.4870648e-01
 -3.3091375e-01
 -9.9090021e-04
 -3.2747871e-01
  3.2075083e-01
  3.7815228e-01
 -2.2974084e-01
 -2.9959083e-02
  3.9275271e-01
  1.9042848e-01
 -8.4324181e-01
 -1.2835820e-01
 -3.3070520e-02
 -2.8017697e-01
  2.6494740e-02
 -5.4169142e-01
 -1.0172387e+00
 -1.7036377e-02
  6.8906522e-01
  3.3790377e-01
  6.7245424e-02
 -2.6919150e-01
  2.1664457e-01
 -5.7776791e-01
